{"type":"NeuralNetwork","sizes":[40,20,10],"layers":[{"weights":[],"biases":[]},{"weights":[[0.17547841370105743,-0.20888689160346985,0.07541472464799881,-0.7533783316612244,-0.3924328684806824,0.1861356794834137,-0.3142315745353699,-0.8116127848625183,0.09504932910203934,0.07057829201221466,-0.20688432455062866,-0.2091837227344513,-0.08905886858701706,0.5834245681762695,-0.942951500415802,-0.23577968776226044,-0.5090080499649048,0.25409868359565735,-0.9587360620498657,-0.4500676095485687,-0.34442898631095886,0.0559488907456398,-0.3856683075428009,-1.0541986227035522,-0.4946480691432953,0.35440099239349365,-0.13332517445087433,0.30394694209098816,-0.06487644463777542,-0.19442664086818695,-0.1478390246629715,-0.10409928113222122,-0.182622492313385,0.10926536470651627,-0.19265753030776978,-0.13961359858512878,-1.1532838344573975,-1.199975848197937,18.47536277770996,-3.6461565494537354],[-0.00886679720133543,-0.24239757657051086,0.8660635352134705,-0.10808797180652618,-0.5621189475059509,-0.08168975263834,0.033506911247968674,-0.3312014639377594,-0.2771811783313751,0.34876880049705505,1.0840386152267456,-0.7444884777069092,-0.5621426105499268,0.23477056622505188,-0.8864240646362305,-0.15635475516319275,0.3673940896987915,-8.208600044250488,9.566649436950684,-3.0760672092437744,-0.7216169238090515,-0.20053304731845856,-0.873979389667511,-0.9316135048866272,-0.21117965877056122,0.0660509467124939,4.159031867980957,-1.0217044353485107,-0.48941001296043396,0.14586849510669708,-1.3891922235488892,-0.5131992697715759,-0.20325562357902527,0.5006776452064514,0.811512291431427,-0.5102506875991821,-0.00322172068990767,-0.052090175449848175,0.04736308380961418,-0.6493508815765381],[-0.18181738257408142,0.03250135853886604,-1.1470742225646973,-1.5553443431854248,0.07485270500183105,-0.35873985290527344,0.3663073480129242,-0.8933823108673096,-0.24014048278331757,-0.20728610455989838,0.12683531641960144,0.28994372487068176,-0.834635317325592,-0.7917004227638245,17.692384719848633,-4.140384197235107,-0.3236587643623352,0.24308063089847565,-0.6745386123657227,0.22811132669448853,0.265764057636261,0.29636722803115845,-0.03263164684176445,-0.8321709632873535,0.2044471800327301,-0.4386163055896759,0.3579535186290741,-0.660556972026825,0.1667596399784088,0.30134057998657227,-1.2251192331314087,-0.6339612007141113,-0.2198457568883896,-0.16126927733421326,-0.035376619547605515,-0.8831604719161987,0.18278053402900696,-0.13192832469940186,-0.09299454092979431,-0.31062960624694824],[0.11301244050264359,-0.3351115584373474,-0.22588880360126495,-0.16321305930614471,0.12434472888708115,-0.539485514163971,-0.7430099248886108,-0.08759506791830063,-4.183573246002197,0.6180112957954407,1.8160470724105835,-1.3011912107467651,-0.17102278769016266,0.22573281824588776,-1.2045187950134277,0.4277142584323883,-0.08671247959136963,0.15298697352409363,-0.619307816028595,-0.3245686888694763,0.02536829747259617,-0.4748613238334656,-0.7778180837631226,0.2700774371623993,0.25430136919021606,0.24700644612312317,-0.4677078127861023,0.08830860257148743,-0.22562503814697266,-0.257615864276886,-0.3621552586555481,0.4579523205757141,-0.05383771285414696,-0.08404973149299622,-0.8426889777183533,0.4254981577396393,0.2060677856206894,-0.12955667078495026,-0.4444686770439148,-0.34192726016044617],[0.35226666927337646,0.4297354519367218,-2.4222097396850586,0.10099495202302933,0.1874786913394928,-0.6101847290992737,2.0494468212127686,-1.2101377248764038,-0.3125140070915222,-0.2833089232444763,-0.29288816452026367,-0.30679091811180115,-0.42818349599838257,-0.09673729538917542,1.0734655857086182,-1.4348433017730713,-0.2766824960708618,0.851245105266571,-0.3361801207065582,0.2952069342136383,0.8123230934143066,0.3587613105773926,1.8570640087127686,-1.3927334547042847,-1.9007067680358887,-0.00824891310185194,3.760805368423462,-1.0254814624786377,-2.146226406097412,-3.533407688140869,6.62913703918457,-2.6440181732177734,0.7642689347267151,-0.3727020025253296,-3.3326802253723145,-0.28133833408355713,0.046098511666059494,0.6249372959136963,0.13946416974067688,-0.5038777589797974],[-0.8293890953063965,-1.4061942100524902,19.61784553527832,-3.54815936088562,-0.10565357655286789,-0.7346681356430054,0.2171896994113922,-0.11987592279911041,0.31451183557510376,-0.1774110496044159,-0.4322766363620758,-0.013750896789133549,0.2995561361312866,-0.2891610264778137,0.26247429847717285,-0.9539316296577454,-0.16636821627616882,-0.0458054281771183,-1.1959773302078247,-0.24349384009838104,0.3521292507648468,-0.12101529538631439,-0.24954426288604736,-0.07143238931894302,-0.6543490886688232,0.0499582476913929,0.2695677876472473,-1.0404304265975952,-0.03982437402009964,-0.13845579326152802,-0.5974319577217102,-0.47937747836112976,0.6715381145477295,-0.38907840847969055,-0.3516014516353607,-0.5129191875457764,0.403626412153244,-0.27433982491493225,-0.014484545215964317,-0.6768649220466614],[-0.033962421119213104,-0.033548805862665176,0.21425890922546387,0.651150643825531,0.4172152280807495,0.17261245846748352,0.1987782120704651,-0.38910770416259766,0.733292818069458,-0.17437748610973358,-16.087238311767578,3.2317824363708496,-0.1740778088569641,0.01774856634438038,1.3525853157043457,0.6251829266548157,-0.02361678145825863,-0.09616276621818542,0.38916295766830444,0.8449657559394836,-0.17080624401569366,-0.19876889884471893,-0.35159268975257874,-0.011711337603628635,0.3795662224292755,0.06106270104646683,-0.23427791893482208,0.2889442443847656,0.45837339758872986,0.08001725375652313,0.1938304901123047,0.4302956759929657,0.4060080647468567,-0.1344321221113205,-0.15741007030010223,0.21484526991844177,0.36975428462028503,-0.5070322155952454,0.32643458247184753,0.08326973766088486],[-0.06860607862472534,-0.45542940497398376,0.0794903114438057,-0.5268716216087341,-0.005297126714140177,-0.1781395971775055,-0.3246114253997803,0.19825254380702972,-0.08574073016643524,0.1466013640165329,-0.08915235847234726,-0.8697561621665955,-0.3700447082519531,-0.21372145414352417,-0.15138870477676392,-0.3708452582359314,0.7305814623832703,-1.178223729133606,15.05665397644043,-4.04474401473999,-0.11724512279033661,0.08187683671712875,-0.28422626852989197,0.19337546825408936,0.21180063486099243,-0.12117773294448853,0.14178739488124847,0.06091757491230965,-0.24103184044361115,-0.080343097448349,-0.04725877568125725,-0.28726568818092346,-0.12165258824825287,-0.08973885327577591,-0.01800406165421009,-0.08745721727609634,-0.2175913155078888,0.010393401607871056,-0.5596842169761658,-0.16574472188949585],[0.053283389657735825,0.05990421772003174,-0.48963576555252075,-0.39459946751594543,-0.20423586666584015,-0.1309634894132614,-0.8076319694519043,-0.4682805836200714,-0.18713270127773285,0.45612627267837524,-0.7997147440910339,-0.27659115195274353,-0.16022898256778717,-0.0798923447728157,-1.0988179445266724,-0.6239606142044067,0.2840484380722046,-0.27106723189353943,0.7184173464775085,-0.03511222451925278,-0.3223327696323395,-0.11831208318471909,-0.28863003849983215,-0.05676531791687012,0.22164291143417358,0.11490073055028915,-0.45685601234436035,-0.23966462910175323,-0.9766594767570496,-0.9391303062438965,18.458471298217773,-4.078399181365967,0.0408291332423687,-0.4200340509414673,-0.4850901961326599,-0.8805794715881348,0.13747568428516388,-0.13320645689964294,-0.33024322986602783,-0.22311924397945404],[-0.07738250494003296,-0.4080740511417389,-1.1870362758636475,0.334202378988266,-0.9446223974227905,-0.29000163078308105,-1.632208228111267,0.8323588371276855,-1.905604600906372,0.20495563745498657,-0.06579560786485672,0.10833222419023514,-0.04922794550657272,-0.1079907938838005,-0.6583673357963562,0.03129306435585022,0.42779746651649475,-0.026067906990647316,-0.41025030612945557,0.010892192833125591,-0.872809648513794,0.3315902352333069,0.3573174476623535,-0.11685889214277267,-0.06511974334716797,0.13260211050510406,-0.9992796182632446,0.22425757348537445,0.13086947798728943,-2.956714153289795,1.7763640880584717,-0.8723765015602112,0.14131058752536774,0.4158332943916321,-0.7864030599594116,-0.1542782336473465,-0.0853174701333046,0.1207861378788948,-1.487913727760315,0.39398229122161865],[-0.10985482484102249,-0.1720259040594101,-0.5831471085548401,-0.5366190671920776,-0.9938818216323853,-0.8619467616081238,18.780277252197266,-3.3725016117095947,0.04365038871765137,-0.1558222472667694,-0.8149026036262512,0.027935916557908058,0.03822777047753334,0.07966659218072891,0.011870494112372398,-0.28608956933021545,0.47536501288414,-0.22285521030426025,-0.6759442687034607,-0.20567534863948822,-0.3091782331466675,-0.23149530589580536,-0.5657898783683777,-0.5175319910049438,-0.45080456137657166,0.20110853016376495,-0.0025224171113222837,-0.2829855978488922,-0.5630590319633484,0.3445834815502167,-1.0643463134765625,-0.08416654169559479,-0.08910520374774933,-0.26074033975601196,0.40197885036468506,-0.6980360150337219,-0.0964205339550972,-0.4468437731266022,-0.02453392930328846,-0.14809061586856842],[-0.6403709053993225,0.5426898002624512,-1.9649410247802734,0.12336551398038864,-0.4777318239212036,0.7309487462043762,-0.011130561120808125,0.09325999021530151,-0.3910124897956848,-0.041387587785720825,-2.3690152168273926,-0.37691572308540344,-0.43810901045799255,-0.23704124987125397,-6.502617835998535,1.3526169061660767,-0.00018035304674413055,-2.387047529220581,4.770279884338379,-1.1182188987731934,-0.00760104414075613,-1.1274675130844116,2.729987144470215,-0.5343494415283203,-0.24611200392246246,0.005434147547930479,-2.831538677215576,0.8205393552780151,-1.034006118774414,0.24086296558380127,-6.602138996124268,0.9271607995033264,-1.3751524686813354,-0.8875493407249451,1.3713467121124268,-0.5152342319488525,-0.23601430654525757,0.2856368124485016,-3.4482572078704834,-0.11136694997549057],[-0.5835943818092346,0.2185077965259552,-0.4151352345943451,-0.25335732102394104,0.03408233821392059,-0.003732274752110243,-0.03703077509999275,0.2266208529472351,0.0902932658791542,-0.10931828618049622,-0.8827983736991882,-0.09853922575712204,0.17816004157066345,-0.06717971712350845,-0.5395402312278748,-1.0063409805297852,0.2571011185646057,-0.29290294647216797,0.33835917711257935,0.5789518356323242,0.15480054914951324,-0.779812216758728,15.651189804077148,-3.628192901611328,0.022645531222224236,-0.16111207008361816,-1.0218127965927124,-0.6815057992935181,0.05297593027353287,-0.522609531879425,-0.5111399292945862,-1.0580885410308838,-0.0049039749428629875,-0.28020182251930237,-0.4108515679836273,-0.21161137521266937,0.09362086653709412,-0.20655223727226257,1.1981054544448853,0.11584027111530304],[-0.6419984102249146,-0.10846973955631256,0.0711006447672844,-0.46877020597457886,0.07161489129066467,-0.08640425652265549,-0.26927289366722107,-0.8417388796806335,-0.06720373779535294,-0.08487505465745926,-0.3523496687412262,-0.38689133524894714,0.21276453137397766,0.1622457355260849,-0.40235400199890137,-0.2416447550058365,-0.11670919507741928,-0.23304657638072968,-0.40452685952186584,-0.3571518659591675,-0.17223592102527618,0.18440619111061096,-0.4975634813308716,-0.644738495349884,0.10504268854856491,0.1912132203578949,-0.39395496249198914,-0.4342428147792816,-0.5125941634178162,0.49124324321746826,-0.5880296230316162,0.47623807191848755,-0.8408994674682617,-1.0859133005142212,18.995574951171875,-3.55061411857605,-0.6930344104766846,0.08059185743331909,-0.7376047968864441,-0.5392340421676636],[0.3864283263683319,0.641645073890686,-2.0579049587249756,0.14224806427955627,0.19278384745121002,0.426852285861969,0.7421602010726929,-0.114448182284832,-1.3257653713226318,0.5481420755386353,-3.365138053894043,-0.20972320437431335,-0.26839274168014526,0.22920332849025726,-1.9988329410552979,-0.05407104268670082,-0.49289053678512573,0.08380268514156342,-4.965414524078369,0.07212095707654953,0.7152324318885803,-4.502240180969238,5.754889965057373,-1.9595543146133423,-1.4861938953399658,-1.5154420137405396,5.809139251708984,-1.2349437475204468,-0.028313321992754936,0.227921262383461,-0.655735969543457,0.3203413486480713,0.2682855725288391,0.5397384762763977,1.2158814668655396,-0.5463294386863708,-0.37674111127853394,-0.3599631190299988,-1.148707628250122,-0.23217812180519104],[-0.24559526145458221,0.09560729563236237,-0.17434878647327423,-0.30067816376686096,0.13884082436561584,-0.2927354872226715,-0.5297959446907043,-0.7231734991073608,-0.06140286475419998,-6.854645252227783,6.916625022888184,-2.5732803344726562,-0.09828992933034897,0.21821744740009308,-0.7770375609397888,-0.367045134305954,-0.02155485935509205,0.10887127369642258,0.14341847598552704,-0.3043200373649597,0.11893513798713684,0.08947021514177322,-0.7189433574676514,-0.7665621638298035,0.05640231817960739,0.2728572487831116,-0.04536108672618866,-0.29570910334587097,-0.1945773959159851,-0.012731430120766163,-0.2889010012149811,-0.6388776898384094,-0.4000939130783081,-0.004784121178090572,-0.10024044662714005,-0.12040290236473083,-0.22600674629211426,0.1721600741147995,-0.22026363015174866,-0.2329622358083725],[-0.3166128695011139,0.13475742936134338,-0.26560038328170776,-0.7257736325263977,0.3301338255405426,-0.43057405948638916,-0.5366641283035278,-0.23006026446819305,0.022987550124526024,0.46291273832321167,-0.40634098649024963,-0.44405969977378845,0.1409938484430313,0.0243143942207098,-0.7572987675666809,-0.09540341794490814,-0.22465208172798157,-0.3208341896533966,-0.8403515815734863,-0.1961451768875122,-0.5807743668556213,0.5363656878471375,0.12774226069450378,-0.2519708573818207,-1.5425041913986206,-0.9253941774368286,17.205236434936523,-3.321469783782959,-0.087298683822155,0.507511556148529,-0.4827533960342407,-0.41078031063079834,0.15063953399658203,-0.3775376081466675,-0.40848419070243835,0.34942811727523804,-0.31914952397346497,-0.015630198642611504,-0.07061219960451126,-0.48078471422195435],[0.440113365650177,-0.23019501566886902,0.44917404651641846,0.04065573960542679,0.013222571462392807,0.1808129847049713,-0.02711290307343006,-0.207314595580101,0.013487767428159714,-0.0696551501750946,-0.6425814032554626,-0.2313968539237976,-5.4567718505859375,-0.38273561000823975,7.095900535583496,-2.197575569152832,0.018779853358864784,-0.041129469871520996,-1.5361251831054688,-0.9163419604301453,0.23592054843902588,-0.3564228415489197,0.542870819568634,-0.44889795780181885,-0.004310901276767254,-0.17692312598228455,-0.1653066873550415,-0.8186938166618347,0.06120892986655235,-0.30756962299346924,-2.3365283012390137,-1.021493673324585,-0.08940130472183228,-0.39658090472221375,0.5656732320785522,-0.08340658992528915,0.13548949360847473,-0.2705104649066925,-1.119468331336975,-0.2793521583080292],[0.05709495022892952,-0.18937350809574127,0.026998715475201607,-0.2874208092689514,-0.15936629474163055,0.10971184819936752,0.18927991390228271,-0.2250678390264511,0.03739391267299652,0.09025315940380096,-1.0769321918487549,-0.8511978387832642,0.19838157296180725,-0.1976945996284485,-0.07117442786693573,-0.2501068711280823,-0.13316737115383148,-0.19315274059772491,-0.9859570264816284,-1.0510884523391724,-8.172348976135254,-1.3779469728469849,13.399091720581055,-4.04760217666626,-0.018606478348374367,-0.47276297211647034,-0.3968212902545929,-1.059776782989502,-0.12010964751243591,-0.5188055038452148,0.15505966544151306,0.09280961006879807,-0.028496261686086655,-0.15400861203670502,-0.13875453174114227,0.00823940895497799,0.08401145786046982,-0.221602201461792,-0.41522201895713806,-0.22003048658370972],[0.2355075478553772,-0.14534084498882294,-0.4128741919994354,-0.6213587522506714,0.16800154745578766,-0.027784032747149467,-0.6631125211715698,-0.504048228263855,-0.05036285147070885,-0.1568121612071991,-0.8350427746772766,-0.8602723479270935,0.02069845236837864,-0.004242152441293001,-0.798445463180542,-0.853386640548706,-8.757559776306152,0.588749349117279,8.210233688354492,-2.6160054206848145,-0.04432084783911705,-0.08641374111175537,-0.8444333672523499,-0.7515420913696289,-0.07268229871988297,-0.006720564793795347,0.1353946179151535,0.2943262755870819,0.22071434557437897,-0.16586799919605255,-0.30611225962638855,-0.4279816150665283,0.1132209524512291,-0.1473965048789978,-0.4611274302005768,-0.38797613978385925,0.08146432042121887,-0.018185734748840332,-0.2429599165916443,-0.0808803141117096]],"biases":[-1.086443305015564,-1.21608567237854,-1.097744345664978,-0.1627948135137558,-0.4050450026988983,-1.1086312532424927,1.0542105436325073,-1.4051204919815063,-1.4298042058944702,-0.24564670026302338,-1.1496015787124634,-0.6593180298805237,-1.5172276496887207,-1.4551349878311157,-1.0513194799423218,-0.9860386252403259,-1.3244459629058838,-0.6149107813835144,-1.6426374912261963,-1.7040066719055176]},{"weights":[[0.40229642391204834,-0.16230353713035583,-0.1780903935432434,0.049315303564071655,-0.5738047957420349,2.513970375061035,0.18473166227340698,-0.03748854622244835,0.24058638513088226,0.08075641840696335,0.139646515250206,-0.15800213813781738,0.029312361031770706,-0.09651447087526321,-0.24065373837947845,-0.014405244030058384,0.12123466283082962,-0.15716680884361267,-0.012981541454792023,0.1510850340127945],[0.13485217094421387,0.20818500220775604,0.07917429506778717,-0.2520880401134491,-0.13598082959651947,0.2170432060956955,-0.011704163625836372,-0.36237210035324097,0.16215009987354279,-0.20819209516048431,2.542844533920288,0.17227444052696228,0.09704389423131943,-0.07202721387147903,0.03628340736031532,-0.05580994114279747,0.20172232389450073,0.024869201704859734,-0.08594633638858795,0.32992324233055115],[0.1710381656885147,-0.23121561110019684,-0.02384757623076439,1.2136198282241821,-0.29505977034568787,0.33599206805229187,-2.2410473823547363,0.049511589109897614,0.19272339344024658,0.4224199652671814,-0.16514386236667633,-0.3354330360889435,-0.04481677711009979,-0.030664701014757156,-0.16184788942337036,2.2457292079925537,0.07989316433668137,0.0611230842769146,0.11994821578264236,-0.1865563690662384],[0.08145122230052948,-0.21277010440826416,2.1411311626434326,-0.11152222007513046,0.028247257694602013,-0.1419229507446289,0.15641245245933533,-0.2720143795013428,0.17724132537841797,0.019786326214671135,0.013095393776893616,-0.024134047329425812,-0.29406461119651794,-0.25641706585884094,0.008001931011676788,0.11473590135574341,-0.17890998721122742,1.970873475074768,-0.2486499845981598,0.0657338947057724],[0.0739298164844513,1.5614210367202759,0.027907496318221092,-0.3603009879589081,-0.24614951014518738,0.18655355274677277,-0.17015714943408966,1.8170359134674072,0.20853355526924133,-0.0641697496175766,-0.16149955987930298,0.9355946183204651,-0.1915651559829712,0.03652322292327881,-0.3064238429069519,-0.15328846871852875,0.12220828235149384,-0.15137696266174316,-0.08368334174156189,2.378657579421997],[0.08373609185218811,-0.05636584758758545,0.12721364200115204,0.015493299812078476,-0.2663857638835907,0.2699506878852844,-0.36645957827568054,-0.12057314813137054,0.19270116090774536,-0.26928824186325073,-0.07539260387420654,0.3207237720489502,1.972424030303955,-0.11616059392690659,0.5657314658164978,0.315667986869812,-0.17727383971214294,0.229391947388649,2.255124092102051,-0.013611143454909325],[0.18164820969104767,0.2701188623905182,-0.0620344914495945,-0.28766772150993347,-0.03613040968775749,-0.11349304020404816,-0.010313889943063259,0.501856803894043,-0.15470395982265472,-0.046430762857198715,0.04863941669464111,0.04088472202420235,-0.07102314382791519,-0.32276636362075806,0.44476214051246643,0.029112830758094788,2.425670862197876,0.3314722180366516,0.024250265210866928,0.22258643805980682],[0.09234215319156647,-0.04743938893079758,0.32346662878990173,0.10197530686855316,0.531307578086853,0.2467993199825287,-0.021612368524074554,-0.266580194234848,2.418173313140869,0.6129292249679565,0.00009041558223543689,0.04507366567850113,-0.2081604152917862,-0.12201666086912155,-0.2867816388607025,0.1544998437166214,-0.22926446795463562,0.2656347155570984,-0.17478258907794952,-0.2579413652420044],[0.08573726564645767,-0.043339673429727554,-0.23339588940143585,-0.10434248298406601,-0.3334931433200836,0.09488914906978607,0.12411023676395416,-0.2393534630537033,0.07908250391483307,-0.12276807427406311,0.012402407824993134,0.14429444074630737,-0.25647732615470886,2.417065382003784,-0.05337103083729744,-0.0658990889787674,0.13037411868572235,0.12608878314495087,-0.03586812689900398,0.4000592529773712],[2.429126262664795,-0.02219102345407009,0.03711633384227753,0.00012184202205389738,-0.38284042477607727,0.479134202003479,-0.06812750548124313,0.01244464423507452,-0.1962718516588211,-0.014774412848055363,-0.30519890785217285,-0.1681155562400818,-0.22935938835144043,-0.04533394053578377,-0.2070063054561615,0.13717901706695557,0.10543641448020935,0.037192415446043015,-0.3383854627609253,0.3237433135509491]],"biases":[-1.4258688688278198,-1.3664687871932983,0.4696115255355835,-1.5390849113464355,-1.4161443710327148,-1.4137355089187622,-1.5340418815612793,-1.2005733251571655,-1.6633806228637695,-1.4881632328033447]}],"inputLookup":null,"inputLookupLength":0,"outputLookup":null,"outputLookupLength":0,"options":{"inputSize":0,"outputSize":0,"binaryThresh":0.5},"trainOpts":{"activation":"sigmoid","iterations":3,"errorThresh":0.005,"log":true,"logPeriod":1,"leakyReluAlpha":0.01,"learningRate":0.3,"momentum":0.1,"callbackPeriod":10,"timeout":"Infinity","beta1":0.9,"beta2":0.999,"epsilon":1e-8}}