{"type":"NeuralNetwork","sizes":[40,20,10],"layers":[{"weights":[],"biases":[]},{"weights":[[-5.083929061889648,0.18660995364189148,2.611694812774658,30.36549949645996,-12.65700912475586,30.672977447509766,-6.732624530792236,-23.05493927001953,24.30244255065918,12.319056510925293,5.304998874664307,-8.585123062133789,17.930482864379883,-6.01231050491333,-7.145622730255127,-0.9829199314117432,-45.17412567138672,3.3347795009613037,16.94637680053711,-1.738793969154358,-31.54808807373047,-24.32387924194336,2.8799405097961426,36.95030975341797,-29.029020309448242,-14.587486267089844,-9.502030372619629,31.381471633911133,11.84699821472168,-16.380355834960938,0.2661079168319702,9.694628715515137,16.505733489990234,-17.767358779907227,-18.731201171875,14.080022811889648,4.7257161140441895,-9.909648895263672,-28.25933074951172,-17.84079933166504],[-2.1013925075531006,-34.24287414550781,43.24717330932617,-12.553879737854004,-11.179156303405762,-13.098418235778809,-1.594582438468933,-2.773837089538574,20.455175399780273,-17.88227653503418,18.976152420043945,12.429341316223145,-10.80261516571045,11.395843505859375,7.774020671844482,-17.48771858215332,-11.33656120300293,16.839889526367188,-20.28670883178711,-14.473970413208008,11.647180557250977,9.581781387329102,26.400054931640625,-25.447202682495117,-11.050848960876465,-2.1248080730438232,10.900372505187988,3.9377121925354004,13.826655387878418,-10.600029945373535,-21.834932327270508,18.422815322875977,25.015844345092773,-14.71506404876709,-13.21329116821289,9.87940502166748,-5.598287105560303,-27.429941177368164,20.967113494873047,-20.59786033630371],[-2.368807554244995,2.1010854244232178,-10.642451286315918,6.243415832519531,-9.480903625488281,1.0814921855926514,-12.202871322631836,28.15022850036621,21.927539825439453,-9.429930686950684,-1.3664547204971313,9.11740779876709,-26.839359283447266,-26.365793228149414,29.543960571289062,21.109210968017578,-10.497997283935547,-2.113374948501587,0.09387730807065964,-3.5944647789001465,2.594740152359009,4.899081230163574,8.253769874572754,-14.278413772583008,-7.577713966369629,-25.1298885345459,-0.271356463432312,-16.16616439819336,13.921923637390137,1.955594778060913,13.990833282470703,-44.01906204223633,-1.4203673601150513,-5.1539626121521,20.568145751953125,8.048624992370605,-14.446784973144531,-15.918915748596191,-22.076549530029297,5.023547649383545],[-38.268585205078125,14.451726913452148,-44.906715393066406,-2.610609769821167,-4.5331807136535645,12.383641242980957,19.49375343322754,-47.30425262451172,22.950639724731445,15.722024917602539,1.4524333477020264,-19.794687271118164,-39.809757232666016,-53.55281066894531,7.573251724243164,9.034167289733887,11.030570030212402,0.11280964314937592,-1.1031498908996582,7.268546104431152,18.9716796875,10.297914505004883,-22.128488540649414,34.03173065185547,-8.989007949829102,11.00004768371582,-18.37445831298828,-22.279640197753906,-8.811787605285645,-14.230792045593262,-15.077877044677734,-3.575730800628662,12.096376419067383,20.604806900024414,42.60118865966797,1.2987003326416016,5.36988639831543,-16.51858139038086,-48.071739196777344,-4.985358715057373],[-21.13746452331543,-33.61680603027344,-5.8062238693237305,12.452479362487793,-19.76573371887207,28.9711856842041,-36.50612258911133,12.549675941467285,-6.157382011413574,0.46259915828704834,8.049330711364746,40.55592727661133,11.829004287719727,-3.2490429878234863,8.835460662841797,3.510465621948242,11.616296768188477,21.59928321838379,29.63405418395996,-11.461433410644531,-6.182772159576416,-2.1293718814849854,-7.165007591247559,1.1784930229187012,-19.037504196166992,9.58535385131836,-25.781768798828125,-9.858290672302246,-5.527156829833984,14.812146186828613,25.425569534301758,-3.7089998722076416,-11.296148300170898,-0.17851519584655762,-23.323749542236328,9.203304290771484,-7.419878005981445,-35.11810302734375,-2.589338779449463,-1.7813613414764404],[23.817934036254883,-11.376289367675781,-28.662813186645508,-20.077707290649414,-17.103063583374023,-2.261268138885498,-59.79214096069336,9.04110050201416,40.632415771484375,-1.5777192115783691,47.116424560546875,21.898683547973633,-52.36656188964844,3.1778335571289062,40.48605728149414,-5.106052398681641,13.075303077697754,-18.64792823791504,-13.464719772338867,-11.368844985961914,-15.829659461975098,27.290002822875977,-52.96358108520508,-8.092519760131836,-25.976089477539062,1.144149661064148,-11.087206840515137,10.068349838256836,-19.871736526489258,12.921960830688477,-1.8605951070785522,9.030004501342773,-11.374650001525879,-15.945167541503906,-24.094459533691406,35.14373016357422,7.575531482696533,21.532909393310547,18.780471801757812,-43.48420333862305],[-8.055596351623535,-40.74393081665039,-2.4774816036224365,32.856075286865234,9.926467895507812,-13.156023025512695,-18.09307098388672,-22.532981872558594,0.7162767052650452,-18.78704261779785,38.914283752441406,-49.613155364990234,16.654993057250977,2.653964042663574,22.276548385620117,1.0327728986740112,16.014381408691406,-10.20816421508789,-16.144744873046875,6.500399589538574,0.6218768358230591,3.1830475330352783,27.632732391357422,28.287378311157227,-30.906530380249023,26.213626861572266,6.140115261077881,-21.835586547851562,-4.906756401062012,-29.4489803314209,14.877361297607422,-42.99359893798828,-26.725236892700195,26.46050262451172,36.79642868041992,-2.575782537460327,21.274314880371094,2.7416772842407227,3.4051761627197266,23.059206008911133],[11.140430450439453,16.026958465576172,7.289019584655762,42.638553619384766,-10.791362762451172,-22.911991119384766,20.522005081176758,-20.006929397583008,31.39606475830078,-17.506689071655273,-49.69417190551758,-1.2297924757003784,-10.714560508728027,-10.389458656311035,5.999964714050293,-41.937843322753906,8.254383087158203,38.61795425415039,4.6753363609313965,34.119483947753906,-23.104185104370117,-27.22670555114746,-21.32539176940918,22.785999298095703,-20.667789459228516,23.750804901123047,12.428849220275879,-44.29194641113281,4.821906089782715,15.616061210632324,20.106761932373047,-2.199113607406616,10.174713134765625,2.444431781768799,-49.98100662231445,28.22243309020996,-20.89336395263672,-22.316272735595703,-43.21461868286133,10.385748863220215],[-7.722290515899658,9.088412284851074,-53.188228607177734,9.295005798339844,-4.570371150970459,16.963302612304688,-2.0291357040405273,-0.8512817025184631,-0.2793673276901245,-1.957871675491333,-11.118880271911621,3.5486109256744385,-14.555246353149414,-22.180767059326172,-16.272315979003906,-2.21738600730896,-3.2183048725128174,-15.652522087097168,61.07740783691406,-22.947509765625,2.5411858558654785,37.57852554321289,-31.1170711517334,-15.610843658447266,20.65479850769043,5.823869228363037,-0.3514852225780487,1.8230007886886597,22.138505935668945,-12.681376457214355,-36.119232177734375,-39.97283935546875,-0.12268920242786407,24.92880630493164,25.61612319946289,-28.93396759033203,-18.665992736816406,15.981144905090332,-10.771854400634766,-42.12498474121094],[-12.03779411315918,-3.036323070526123,-42.203269958496094,-45.15143966674805,0.06583522260189056,-21.53354263305664,21.24834632873535,-6.163639545440674,-24.764259338378906,-6.394476413726807,11.096814155578613,-22.5260009765625,23.885974884033203,-13.104888916015625,-20.22956657409668,20.835054397583008,-18.56448745727539,27.71163558959961,-7.460940837860107,-31.305282592773438,6.620668888092041,-20.42351531982422,12.461825370788574,16.95501708984375,3.06085467338562,0.8663676977157593,-5.873985767364502,-12.420574188232422,7.465144157409668,8.529945373535156,44.50307083129883,-33.67061996459961,-12.234997749328613,-40.479434967041016,24.99559783935547,77.6011734008789,9.001684188842773,-15.964771270751953,-2.77883243560791,28.929651260375977],[-11.350661277770996,-11.292715072631836,-5.467990398406982,20.00267791748047,-18.40531349182129,17.82168197631836,-36.76512908935547,22.907390594482422,-2.3532092571258545,10.422147750854492,-25.8159122467041,7.7764573097229,-13.452960014343262,-26.850082397460938,7.029392242431641,14.56047248840332,-9.236180305480957,-1.8957349061965942,2.308795928955078,30.5474796295166,29.631023406982422,23.16367530822754,-11.427559852600098,0.989280104637146,21.528125762939453,-20.587751388549805,-23.318042755126953,22.024810791015625,12.227088928222656,-16.76895523071289,-33.78260040283203,1.750962734222412,14.729852676391602,-34.984901428222656,1.5908390283584595,45.1198844909668,-27.91810417175293,-6.379203796386719,-44.40789794921875,-27.46562957763672],[-8.103890419006348,-14.630182266235352,-0.9484926462173462,4.50546407699585,20.035865783691406,20.952552795410156,-1.7188822031021118,10.83736515045166,5.8079304695129395,-27.831090927124023,-10.060556411743164,-10.02965259552002,23.58069610595703,5.5338616371154785,12.935444831848145,-10.819276809692383,-5.230198383331299,28.616289138793945,-23.016305923461914,-2.0316109657287598,-23.2692928314209,18.81058120727539,-19.167102813720703,-40.351173400878906,-11.13723087310791,-2.376648187637329,-11.885995864868164,6.5500311851501465,-14.979669570922852,9.999034881591797,-4.081393241882324,-17.491605758666992,5.795653820037842,-9.040106773376465,30.693601608276367,27.265413284301758,-67.08621215820312,-32.68959426879883,18.691797256469727,-1.8583329916000366],[-16.647775650024414,-44.44070053100586,11.838842391967773,-45.041934967041016,-12.444933891296387,-7.463428020477295,-9.9718599319458,32.236881256103516,-5.101995468139648,4.436295032501221,-27.3985652923584,-7.204058647155762,5.264046669006348,15.501579284667969,-4.014193058013916,9.86108112335205,-0.5316625833511353,16.700590133666992,-24.88629150390625,-8.134852409362793,3.2994821071624756,-0.5672174096107483,-17.510330200195312,0.6931802034378052,-0.10607828199863434,-13.12347412109375,21.381921768188477,41.64734649658203,3.6557352542877197,5.665162563323975,8.007505416870117,-18.544139862060547,-16.909637451171875,-19.659223556518555,-53.545997619628906,0.5990399718284607,37.35728073120117,-10.605097770690918,22.92710304260254,-61.4986686706543],[6.4274067878723145,-5.782329559326172,-34.77529525756836,-41.311065673828125,5.854089260101318,-4.076048851013184,12.285228729248047,-3.03672194480896,1.7761250734329224,-4.960681438446045,-37.65908432006836,29.410255432128906,7.921369552612305,13.164774894714355,13.042509078979492,-16.58384132385254,-4.272933483123779,-3.3995461463928223,-28.75960922241211,-34.536865234375,0.6225107908248901,18.363954544067383,-11.103796005249023,-0.8185946941375732,-6.835058212280273,16.61861228942871,-5.295290946960449,-33.74409103393555,-21.347545623779297,-30.168045043945312,-34.201107025146484,55.2780876159668,-3.5358805656433105,0.9223517775535583,39.97386169433594,7.8309431076049805,-36.71784210205078,-7.338996410369873,15.498884201049805,-29.544279098510742],[2.6170952320098877,-18.437877655029297,-37.10405731201172,1.558735728263855,-10.74274730682373,21.35962677001953,-3.723128318786621,-14.425434112548828,-28.276567459106445,0.5199354887008667,11.136619567871094,-6.688360214233398,-19.31528663635254,-8.518322944641113,1.6624945402145386,42.553932189941406,-17.0869140625,-14.300926208496094,-11.717955589294434,-17.593034744262695,4.134398937225342,-18.199989318847656,14.279121398925781,14.318046569824219,4.499536514282227,4.147731781005859,-27.078876495361328,-4.614013671875,-2.308100938796997,2.682896852493286,-26.50308609008789,29.77056884765625,-11.756978988647461,-8.668729782104492,14.135189056396484,28.408203125,36.254295349121094,-9.050310134887695,7.61071252822876,11.562928199768066],[-12.129850387573242,-7.321204662322998,0.4712182283401489,16.913660049438477,11.782814025878906,-9.906060218811035,-13.409614562988281,-29.606050491333008,1.6686524152755737,-10.559941291809082,13.131816864013672,14.61135196685791,-40.600364685058594,-4.4395527839660645,-37.97586441040039,-13.20409870147705,34.75892639160156,-18.02269744873047,-8.145218849182129,8.968097686767578,-2.7234272956848145,15.02312183380127,-36.503662109375,0.22880789637565613,11.991966247558594,0.8549932837486267,-1.415637731552124,-19.937082290649414,-33.353553771972656,-48.00963592529297,10.170443534851074,-11.652299880981445,-19.14919090270996,28.17254638671875,19.7977237701416,-29.651512145996094,16.26327133178711,5.101839542388916,-16.69536590576172,16.949831008911133],[7.758462429046631,11.25948715209961,13.84241008758545,-16.37912368774414,-20.59953498840332,-1.905656337738037,-34.445621490478516,-26.547513961791992,15.133260726928711,4.369077682495117,21.459131240844727,50.82228469848633,-27.9196834564209,-16.885257720947266,31.37750244140625,-31.51364517211914,-22.05808448791504,-2.5058228969573975,-7.591439723968506,-12.752243995666504,-9.727423667907715,3.031532049179077,22.233684539794922,47.24666976928711,-9.83222484588623,9.347536087036133,-34.46575164794922,-29.640796661376953,-11.21541976928711,5.574592113494873,-4.524491786956787,3.914555311203003,-14.003576278686523,27.395973205566406,18.182636260986328,-9.467605590820312,-18.265836715698242,-2.5995559692382812,-24.66271209716797,55.608097076416016],[4.447476863861084,-12.504408836364746,-3.535714864730835,2.240919351577759,15.366663932800293,-2.5150868892669678,-42.79178237915039,-21.129547119140625,-16.152603149414062,-5.08123254776001,-6.918882846832275,4.866250991821289,6.811224460601807,-14.997807502746582,11.567564010620117,-43.9742317199707,11.820590019226074,2.7134249210357666,-5.877774715423584,17.084348678588867,7.480075836181641,-4.248615264892578,-32.244102478027344,-20.664878845214844,3.1451683044433594,-17.13003158569336,-18.614599227905273,-33.57124710083008,14.848904609680176,4.196141242980957,0.6562406420707703,16.95164680480957,10.952054977416992,-30.61991310119629,23.552988052368164,-39.425132751464844,18.26763153076172,-16.314666748046875,-1.699676275253296,-2.7235591411590576],[16.850175857543945,21.403865814208984,-17.90245819091797,11.49902629852295,4.717462062835693,-31.13789939880371,-21.79033088684082,-5.404839038848877,1.5872228145599365,12.284135818481445,-76.55570983886719,17.443283081054688,2.3401801586151123,-5.040807247161865,-2.557023763656616,-59.46284866333008,-1.454577922821045,0.9538613557815552,10.762566566467285,19.444921493530273,3.9065725803375244,-9.59411334991455,-52.0574951171875,38.70241928100586,-24.588165283203125,-9.928888320922852,-0.6271361708641052,-14.769034385681152,14.527162551879883,-2.0177061557769775,-30.973711013793945,-21.67760467529297,28.635347366333008,6.784365653991699,2.61250638961792,17.450471878051758,-37.725616455078125,-48.58912658691406,-11.739727973937988,9.693336486816406],[-8.537907600402832,1.2143642902374268,-19.032089233398438,-10.883779525756836,-0.3724631369113922,0.88124018907547,-3.0174806118011475,9.004462242126465,-36.1771125793457,-40.15098190307617,54.71792221069336,3.14634108543396,1.6452213525772095,-11.655089378356934,43.055667877197266,5.818150520324707,-17.9941463470459,9.321691513061523,9.532538414001465,28.904315948486328,-14.307280540466309,16.606958389282227,-34.96133041381836,-2.52030611038208,-20.565418243408203,-11.946505546569824,6.571898460388184,9.425654411315918,2.173485517501831,2.9179036617279053,37.5857048034668,-17.977611541748047,-3.1404614448547363,11.299973487854004,16.63016128540039,-15.401533126831055,-14.640740394592285,5.530535697937012,-28.16085433959961,-18.636667251586914]],"biases":[-1.6748095750808716,-46.80793380737305,-16.571693420410156,-27.6043701171875,-16.561996459960938,1.6953109502792358,-19.667964935302734,-37.96072769165039,-36.63030242919922,2.034039258956909,-7.575354099273682,-41.21689987182617,-4.621643543243408,10.804722785949707,-1.0256247520446777,0.7298254370689392,-31.408000946044922,20.00556755065918,5.556550979614258,-2.911611318588257]},{"weights":[[0.08758167177438736,1.3539965152740479,-9.114274978637695,-1.0170327425003052,0.18622826039791107,-2.873842716217041,0.41944658756256104,-0.5695262551307678,-0.9962250590324402,-1.3536804914474487,0.7677822709083557,5.624486446380615,1.8060294389724731,-1.1546733379364014,-1.439375638961792,-2.274718999862671,3.463423490524292,-0.3784988224506378,-5.2943902015686035,-0.9194478392601013],[-51.18838882446289,0.0006903879693709314,28.297109603881836,51.84888458251953,-21.809782028198242,-26.54277229309082,-27.60696029663086,26.15848731994629,0.36693400144577026,-1.836891531944275,-1.9374232292175293,-54.65830612182617,0.6536722779273987,26.819597244262695,-0.04295704886317253,-23.735546112060547,-25.699440002441406,-1.835088849067688,-3.0579493045806885,29.342885971069336],[-1.473899006843567,2.6941945552825928,-34.741981506347656,-0.023565923795104027,1.885664701461792,0.4185226261615753,-0.5310084819793701,1.547334909439087,0.15349623560905457,1.3190107345581055,-0.7782796621322632,-0.8586487174034119,-2.1255335807800293,-31.493438720703125,-0.38218989968299866,1.7611323595046997,-0.9873411059379578,-0.37249794602394104,-2.9374382495880127,38.60603713989258],[-0.7773582935333252,-6.81268835067749,7.7681427001953125,5.092803001403809,-4.814139366149902,1.234673023223877,4.229623317718506,1.0722219944000244,1.4831838607788086,-10.396296501159668,2.1241939067840576,1.9573591947555542,-3.784964084625244,1.596591830253601,3.241849660873413,-9.70810604095459,-0.057491887360811234,5.568358898162842,-1.8245470523834229,4.857681751251221],[3.957578182220459,1.6158157587051392,3.0514864921569824,-3.701289653778076,4.258890151977539,1.0171767473220825,0.8150368332862854,-3.5580649375915527,4.9488372802734375,1.6290007829666138,-6.6924872398376465,-6.145405292510986,0.09107404202222824,0.8638573884963989,-5.132049083709717,-3.796415090560913,-1.6440647840499878,0.6617195010185242,-1.142172932624817,-2.7292215824127197],[2.1308789253234863,-5.11387825012207,-0.1454814374446869,-2.696751117706299,-1.3184030055999756,-2.102457046508789,1.3960894346237183,2.4505727291107178,0.8659723997116089,-0.6643708944320679,0.8490086197853088,0.372791051864624,0.11262018978595734,-0.6158729195594788,1.8596709966659546,1.6609361171722412,0.018534060567617416,-0.0033671704586595297,-0.1556108295917511,-2.831096649169922],[3.8741064071655273,-34.137306213378906,35.982662200927734,2.463240385055542,-9.31886100769043,3.92820405960083,-2.6820499897003174,-41.017398834228516,-11.884980201721191,-7.422144889831543,10.021682739257812,13.88772201538086,36.326820373535156,2.1321189403533936,-1.7192490100860596,-12.737227439880371,6.485385417938232,-12.994248390197754,37.15156173706055,16.72356605529785],[1.2115315198898315,1.734631896018982,-61.40310287475586,-1.1281884908676147,2.66910982131958,0.9218897819519043,-2.4836883544921875,-1.0200233459472656,-0.3685690760612488,-1.0750623941421509,-2.145223379135132,-2.0154099464416504,-0.9424964189529419,2.526564121246338,-0.38926029205322266,3.3141040802001953,1.3611732721328735,0.6417315006256104,1.0429729223251343,-0.26326754689216614],[0.45988091826438904,-0.33516326546669006,0.5752653479576111,0.0941748097538948,-0.6782187819480896,1.9097224473953247,-0.4307076334953308,0.31063196063041687,-0.1613660752773285,45.3894157409668,-0.2564345598220825,1.0565305948257446,-1.2749882936477661,0.11589445173740387,41.01676940917969,0.8557921648025513,-86.94821166992188,-41.10139465332031,-0.9749950766563416,-47.560482025146484],[-0.6789453029632568,1.746067762374878,-0.6991365551948547,-0.21613748371601105,-0.6997048854827881,-0.2555277347564697,0.40065798163414,0.520639955997467,-1.9501315355300903,-0.7769094109535217,1.436722993850708,1.5042961835861206,-1.7076102495193481,-2.307143211364746,-0.524445652961731,1.3753156661987305,0.3160415589809418,-0.9974681735038757,2.0669431686401367,-0.7707216143608093]],"biases":[0.27697208523750305,1.498965859413147,-0.8340451121330261,-3.914405345916748,-0.6954601407051086,-1.0189851522445679,-0.9196029305458069,-0.6284796595573425,-0.5811216235160828,0.28391990065574646]}],"inputLookup":null,"inputLookupLength":0,"outputLookup":null,"outputLookupLength":0,"options":{"inputSize":0,"outputSize":0,"binaryThresh":0.5},"trainOpts":{"activation":"sigmoid","iterations":20000,"errorThresh":0.005,"log":true,"logPeriod":1,"leakyReluAlpha":0.01,"learningRate":0.3,"momentum":0.1,"callbackPeriod":10,"timeout":"Infinity","beta1":0.9,"beta2":0.999,"epsilon":1e-8}}