{"type":"NeuralNetwork","sizes":[40,20,10],"layers":[{"weights":[],"biases":[]},{"weights":[[5.597014904022217,5.669977188110352,-7.846401691436768,1.3082797527313232,-3.942187547683716,-1.346657633781433,5.955802917480469,-7.281186103820801,-4.826239585876465,-2.9722204208374023,-15.418700218200684,3.2740542888641357,1.4607298374176025,2.5770978927612305,-10.31017017364502,-8.396297454833984,-7.96865701675415,3.3184094429016113,18.870182037353516,-8.40479850769043,0.47427672147750854,2.9784984588623047,-4.672622203826904,5.029917240142822,2.527174711227417,0.14664196968078613,2.913259983062744,1.31832754611969,6.698228359222412,2.3595781326293945,-18.48514175415039,0.4090794324874878,-7.648767948150635,-7.685391902923584,12.448585510253906,0.30091115832328796,1.0964523553848267,0.855338454246521,6.834880352020264,-1.917749047279358],[-5.016979217529297,-5.998807907104492,8.526243209838867,-0.06833857297897339,-1.5265429019927979,3.6577584743499756,3.2401535511016846,6.069118499755859,2.058662176132202,1.3597545623779297,7.779609203338623,-6.322437286376953,0.11357077956199646,1.198743224143982,-25.666526794433594,1.9672566652297974,-1.4678384065628052,0.8919585347175598,7.705350875854492,2.314981460571289,0.17362120747566223,-6.086073875427246,-2.4577646255493164,2.8525662422180176,2.0837771892547607,0.10121376812458038,-14.302389144897461,0.5479950308799744,0.27195075154304504,3.1693952083587646,-0.6226341724395752,1.580031394958496,1.1979111433029175,-0.8875856995582581,-20.775978088378906,-0.8894696235656738,1.3333383798599243,3.098012685775757,-5.050776481628418,-1.2418631315231323],[4.7554168701171875,-1.105981707572937,-8.366127967834473,-2.1590237617492676,3.912350654602051,-4.110379219055176,-10.085709571838379,-3.807297945022583,5.198287487030029,-0.13238269090652466,0.5319903492927551,0.2566854953765869,1.1948946714401245,0.4174887537956238,-13.3768310546875,-2.518033981323242,9.095468521118164,-1.9132301807403564,3.8989086151123047,0.7230547666549683,-4.094693183898926,-4.601436614990234,24.95694923400879,-1.5233732461929321,3.690030336380005,-1.0925730466842651,10.283519744873047,10.362394332885742,-5.34849739074707,-7.7326531410217285,-5.502157211303711,-4.48180627822876,0.1223352700471878,-2.2445743083953857,-1.6873078346252441,1.6204701662063599,-5.193777561187744,-1.9847712516784668,3.7831740379333496,-3.2409448623657227],[-4.914852619171143,-0.9000287652015686,1.9015837907791138,-1.8338428735733032,4.040045261383057,3.8164541721343994,-18.353389739990234,2.098294734954834,0.1417156457901001,3.8025097846984863,-12.295252799987793,0.3955755829811096,-5.377442836761475,0.9777748584747314,7.403912544250488,3.8097622394561768,1.4199082851409912,5.972362041473389,-10.632919311523438,5.173516273498535,-1.6010189056396484,1.9236093759536743,-15.649179458618164,-1.283308744430542,-4.51418399810791,6.644654273986816,-18.47446060180664,1.5828189849853516,-2.1151933670043945,-0.4190627634525299,1.1070154905319214,-3.632781505584717,0.5557559728622437,-1.3648258447647095,2.058415412902832,2.0952908992767334,5.711751461029053,-3.694058656692505,-6.082590103149414,-0.27494141459465027],[0.2611147463321686,4.625621318817139,-7.670310974121094,-6.445428848266602,3.535910129547119,-1.4136310815811157,1.7542585134506226,0.26411789655685425,-8.130271911621094,-11.018574714660645,21.209997177124023,2.2784738540649414,-8.419622421264648,3.7950234413146973,5.363451957702637,-3.684016227722168,0.37771275639533997,1.799755573272705,8.428561210632324,3.6910440921783447,4.7031354904174805,2.139221429824829,3.386059522628784,-7.730327129364014,1.6267865896224976,-0.20913076400756836,1.6949350833892822,1.815588116645813,-1.3908079862594604,-1.4424254894256592,4.25995397567749,-0.7312466502189636,0.0007600223179906607,-9.744576454162598,1.2505073547363281,1.9666345119476318,6.3050312995910645,6.527259349822998,-11.30234146118164,-0.3713814914226532],[-0.43057939410209656,0.9252778887748718,19.614397048950195,-13.521811485290527,-2.1627557277679443,-1.6824619770050049,20.52454376220703,-10.081659317016602,-0.4117722809314728,0.8988146185874939,21.857635498046875,-8.271615982055664,0.12152915447950363,-2.2000043392181396,21.549623489379883,-11.233184814453125,-0.12306011468172073,1.827262043952942,21.661069869995117,-12.307734489440918,-0.8991156816482544,-1.3518832921981812,-21.51811981201172,10.731657981872559,1.2948732376098633,-2.5508503913879395,-21.27029037475586,6.251280784606934,0.7915440201759338,1.1103554964065552,-18.240909576416016,6.067990303039551,2.623783588409424,0.872784435749054,-17.124134063720703,5.451737403869629,1.0011619329452515,-1.0993667840957642,-20.25710678100586,9.594244956970215],[4.129645347595215,3.7179062366485596,3.283540964126587,2.8858015537261963,0.10106313973665237,-0.9706871509552002,3.9026598930358887,-4.835240364074707,2.72021484375,2.326385736465454,-12.123368263244629,4.839619159698486,2.4183197021484375,-0.5959817171096802,-4.519711017608643,-4.30527925491333,-7.076242446899414,-4.989724159240723,12.439857482910156,-6.656960964202881,-4.439824104309082,-3.0364327430725098,5.57908821105957,-0.6268248558044434,3.722795009613037,-2.7385573387145996,-6.834212779998779,2.8395650386810303,3.243701457977295,-2.025364398956299,4.891958713531494,-0.4674627184867859,2.0129950046539307,-1.2632755041122437,-18.95792007446289,2.4529290199279785,-1.742694616317749,0.09332659840583801,-2.4218246936798096,-6.439049243927002],[-2.6494109630584717,-1.533868670463562,-4.89120626449585,-4.966278553009033,-1.6998339891433716,0.20749594271183014,-5.90519905090332,0.9506904482841492,-2.570690393447876,-4.967556476593018,0.15255287289619446,2.15964674949646,0.038801878690719604,-1.914260983467102,-1.3179904222488403,4.443918704986572,3.2190074920654297,6.8990864753723145,-20.286113739013672,2.760050058364868,2.5929269790649414,-2.20914626121521,-1.7844429016113281,-1.1023218631744385,-0.9234889149665833,-2.6478443145751953,0.9675077795982361,3.0589206218719482,1.1362987756729126,0.646028459072113,1.206057071685791,-1.8787271976470947,2.574331760406494,2.857734203338623,3.9807851314544678,0.8830694556236267,2.2972428798675537,1.070717453956604,-35.690067291259766,3.5773653984069824],[-6.427628993988037,0.802718460559845,-8.937780380249023,-3.3368217945098877,-1.6328542232513428,0.7992164492607117,-8.247716903686523,-8.974125862121582,-8.643957138061523,-5.5795578956604,-10.112881660461426,8.018620491027832,6.905964374542236,0.004493724089115858,-21.042787551879883,8.740986824035645,5.166749477386475,10.653814315795898,-12.565572738647461,-1.3400827646255493,6.697882652282715,-1.0514479875564575,9.822954177856445,-6.885371208190918,0.5430022478103638,2.246368169784546,1.089491605758667,-14.542967796325684,4.430668830871582,1.1736911535263062,6.118693828582764,-7.027229309082031,-3.2313101291656494,1.4351091384887695,14.951916694641113,2.476013660430908,-0.5360897183418274,5.359745979309082,9.410216331481934,-5.354771137237549],[-0.44693607091903687,2.3669087886810303,-3.333580255508423,5.996696949005127,-3.549175977706909,-1.7796269655227661,1.8612511157989502,-6.9123640060424805,1.7997275590896606,-4.60148811340332,8.09126091003418,-9.079326629638672,-1.8808337450027466,6.375819683074951,0.6364198923110962,-1.7708958387374878,-1.5947123765945435,2.151028633117676,-14.134790420532227,3.052457809448242,5.043578624725342,-0.9963134527206421,-7.104352951049805,4.16195821762085,4.838861465454102,2.778658866882324,-12.14688491821289,11.036931991577148,-0.5830904841423035,-4.893329620361328,-10.236404418945312,-0.4718499183654785,-0.7664671540260315,-0.2948227524757385,-12.765824317932129,1.6033133268356323,-1.492663025856018,-2.8729054927825928,11.327982902526855,-6.912505626678467],[0.6319509744644165,5.065069198608398,-4.640881538391113,-2.7389204502105713,2.1748056411743164,1.3737497329711914,-9.761829376220703,6.035364151000977,-5.215959548950195,2.8436834812164307,6.094427108764648,2.196032762527466,3.3515517711639404,-2.4691622257232666,-15.972960472106934,2.418675184249878,-2.586700201034546,-2.5109591484069824,-11.9991455078125,-4.1502509117126465,-4.401423931121826,2.9014220237731934,3.2904324531555176,1.4834145307540894,0.5746181607246399,0.8360938429832458,-0.9120851755142212,-4.05824089050293,6.950521945953369,8.394915580749512,-14.959714889526367,1.8382102251052856,0.81037837266922,-1.8634501695632935,-2.6416916847229004,-11.168041229248047,-0.30093178153038025,-1.6040655374526978,2.724159002304077,5.215301990509033],[-0.6271700263023376,-0.8244187831878662,-3.597729444503784,0.5450521111488342,-2.0917108058929443,-0.7812685370445251,2.6207733154296875,-5.444352626800537,7.417074203491211,-1.1288397312164307,-18.24413299560547,5.343508243560791,-4.333521366119385,0.14084196090698242,-26.823158264160156,-2.6538970470428467,-0.9572166800498962,2.526160955429077,6.35129976272583,5.291651248931885,0.903571605682373,6.073974609375,-14.906717300415039,-0.30285173654556274,1.0375157594680786,2.837965488433838,-17.812301635742188,7.3885908126831055,-1.7853094339370728,0.4700453579425812,-2.7499892711639404,1.0272610187530518,-3.438249111175537,1.8497802019119263,4.2634596824646,8.043914794921875,2.6994314193725586,6.331252574920654,-18.348526000976562,3.7471511363983154],[0.2154853492975235,-3.0139763355255127,8.66742992401123,-0.40044811367988586,0.8014723658561707,3.2615597248077393,14.144352912902832,-5.306597709655762,-1.1197036504745483,1.8389971256256104,-11.4054536819458,6.637295246124268,-2.918734073638916,-1.4874684810638428,6.1007161140441895,0.12005556374788284,7.9156646728515625,3.31054425239563,-21.00639533996582,-0.047118134796619415,2.1351749897003174,7.248683452606201,-1.1679818630218506,6.588608264923096,-3.679536819458008,0.39306455850601196,-0.8230154514312744,5.985413074493408,-0.9770376086235046,-1.4860143661499023,-8.761340141296387,-0.6387418508529663,-3.742702007293701,-8.504415512084961,-0.608735203742981,9.2424898147583,-4.303548336029053,0.43280714750289917,2.0946292877197266,-4.14124059677124],[-4.363554954528809,1.193217158317566,2.3402113914489746,-0.32336241006851196,1.9695355892181396,6.967621326446533,-27.629789352416992,3.7759170532226562,-1.1778018474578857,-3.334010601043701,-17.262603759765625,0.9701722860336304,0.7261949181556702,-2.2665977478027344,8.356270790100098,3.079968214035034,-3.366748094558716,1.6917825937271118,6.620013236999512,-5.650232791900635,1.906814694404602,3.738048791885376,10.528763771057129,0.5284585952758789,0.0021598150487989187,3.64284348487854,-6.804413318634033,10.118425369262695,-3.9643847942352295,-4.508602619171143,2.730903148651123,-1.1444164514541626,3.852583885192871,2.314857006072998,-4.712610244750977,1.4336482286453247,-0.2781323194503784,6.5561723709106445,-0.6027542352676392,-0.3268602788448334],[5.785244464874268,0.8795992136001587,-5.351175785064697,-0.4301837682723999,-1.903436303138733,4.2484002113342285,-5.872281074523926,3.0656683444976807,-0.03430754691362381,0.36595290899276733,-7.842714786529541,-3.923163414001465,-2.8315157890319824,-6.978161811828613,16.776498794555664,-0.10911822319030762,6.258581638336182,-0.6992782354354858,-3.8829526901245117,-1.9394137859344482,-1.7692011594772339,-6.741177558898926,8.966534614562988,-5.745002746582031,6.0850090980529785,0.5975690484046936,-6.825791358947754,-5.865429878234863,0.9263838529586792,6.814727783203125,-17.57170867919922,-11.271818161010742,-1.2097357511520386,3.330010175704956,-8.014750480651855,-3.78180193901062,-4.364187240600586,-0.527927577495575,-14.551573753356934,0.6999102234840393],[5.5285325050354,2.2051868438720703,-35.348445892333984,-3.758051633834839,3.5389516353607178,-1.7253918647766113,0.04292295500636101,-0.3313709497451782,-1.7066437005996704,3.321688413619995,2.629908323287964,-0.5511512756347656,-2.4895870685577393,-5.242757797241211,0.7338711619377136,-1.3806217908859253,4.598224639892578,2.6864819526672363,-5.574766159057617,2.707411289215088,-0.8631975054740906,-0.8388223648071289,6.016737461090088,4.137008190155029,1.64509916305542,2.3204808235168457,-6.393237113952637,1.629728078842163,-1.6268967390060425,1.2642537355422974,-6.2745256423950195,1.7943707704544067,1.4138861894607544,5.668875217437744,-11.360118865966797,7.378828048706055,-3.97981595993042,-1.0097265243530273,2.323908567428589,4.301272392272949],[-0.2909427583217621,-1.294091820716858,3.5244109630584717,-4.9150519371032715,-0.09279549866914749,1.3867765665054321,-7.821657657623291,-1.504992127418518,-1.0020278692245483,-0.9702378511428833,-4.890848159790039,5.636311054229736,-0.5406620502471924,-2.174259901046753,-1.540331244468689,0.8302755355834961,-3.5950405597686768,3.069888114929199,-3.869879722595215,1.8684484958648682,3.153007984161377,3.1565699577331543,-4.353420257568359,-3.285183906555176,0.14351443946361542,-0.22409993410110474,17.095964431762695,-2.6213793754577637,1.993382215499878,3.623786687850952,-7.04994535446167,-0.3859942853450775,3.2848596572875977,1.476245403289795,-25.187700271606445,2.8664169311523438,2.5985920429229736,0.40462592244148254,-2.8810842037200928,6.402583599090576],[4.113037586212158,-0.4584091007709503,-3.9688074588775635,7.7192792892456055,4.06255578994751,1.498883605003357,-5.9585490226745605,2.6823930740356445,-0.8354647159576416,-2.462355375289917,1.1431032419204712,2.2716381549835205,7.953217029571533,1.5036776065826416,-11.109807968139648,-1.5256812572479248,5.176534652709961,-4.155717372894287,-0.22041767835617065,-6.464105606079102,4.456418514251709,0.07742287963628769,-30.147775650024414,-2.770984172821045,-3.0418193340301514,-0.41859620809555054,1.4778425693511963,-10.697123527526855,-3.884692668914795,-0.5925490260124207,2.6617538928985596,-2.4990642070770264,-1.9394590854644775,-2.1294286251068115,19.853425979614258,4.028322696685791,-1.2624229192733765,-0.7396688461303711,-2.4139304161071777,-4.576873302459717],[2.2929513454437256,-1.3967626094818115,-18.291898727416992,-1.2574355602264404,-1.905342698097229,4.16574239730835,-7.723824977874756,7.5398335456848145,2.104450225830078,-6.315041542053223,-2.9899582862854004,2.5516209602355957,-1.6603490114212036,6.294783115386963,7.551791667938232,2.014411211013794,1.2008140087127686,-5.480773448944092,3.549175262451172,-7.1318488121032715,3.639873743057251,0.829835057258606,-6.103361129760742,-3.332087755203247,-3.7573041915893555,-3.4569854736328125,19.232248306274414,4.571231842041016,3.360285520553589,0.36193469166755676,-6.229315280914307,5.645750999450684,-0.8824306726455688,2.6429927349090576,-6.14481782913208,-2.6393380165100098,2.7203516960144043,3.052992343902588,-3.6424989700317383,-5.205450534820557],[3.3294053077697754,-0.7459751963615417,10.9852933883667,7.91533899307251,-0.8483065366744995,0.6807103157043457,11.7138032913208,-5.785585403442383,-8.426572799682617,-0.007025998085737228,-2.848625898361206,0.6915981769561768,5.772125720977783,-0.04608407989144325,5.628292083740234,-5.4072675704956055,5.626097202301025,3.623868703842163,2.704568862915039,3.5557284355163574,-1.7341538667678833,3.307013988494873,3.7807793617248535,-6.601998805999756,-4.946391582489014,1.3846428394317627,-1.614975094795227,0.5006291270256042,-5.146270751953125,-4.441379547119141,-21.777591705322266,-1.8423500061035156,2.158433198928833,4.62773323059082,-3.5372323989868164,-3.2142934799194336,5.1190996170043945,-2.458510160446167,-6.696275234222412,0.35316410660743713]],"biases":[-0.14158016443252563,2.0470361709594727,4.422245502471924,6.867457866668701,-11.936125755310059,-0.5329421162605286,9.055423736572266,15.305538177490234,-1.851176142692566,3.7398149967193604,1.2731972932815552,-5.663722038269043,-10.828099250793457,1.1455631256103516,11.263049125671387,1.8864516019821167,-1.2575534582138062,0.3620698153972626,-12.595500946044922,-2.220449686050415]},{"weights":[[-10.290229797363281,8.098894119262695,-8.983345031738281,-11.110854148864746,-0.08603541553020477,19.91440200805664,-6.358746528625488,-3.5668790340423584,-5.653097152709961,-5.778625965118408,-0.5747127532958984,0.6368617415428162,13.442220687866211,12.57420539855957,7.371327877044678,-34.27075958251953,5.010231018066406,-6.552450656890869,-14.146928787231445,2.242860794067383],[-5.3480963706970215,2.597153663635254,-13.864222526550293,-20.67369270324707,1.168538212776184,15.110817909240723,1.4981520175933838,-2.2661936283111572,-2.548548698425293,3.0645840167999268,-11.45334243774414,6.787879467010498,11.409926414489746,-19.77126693725586,-2.4134843349456787,4.299248695373535,-9.50571346282959,-13.184033393859863,-2.441272735595703,13.954170227050781],[-19.27463150024414,11.711380958557129,-9.460338592529297,-10.93894100189209,20.82175636291504,16.87700653076172,-13.251112937927246,-6.627080917358398,-13.168086051940918,8.077741622924805,5.323893070220947,-5.7743425369262695,-11.7357759475708,-4.2573652267456055,-3.280998706817627,-2.6013400554656982,-7.0621337890625,3.012291193008423,-6.059256553649902,3.501631736755371],[-6.240588665008545,-15.344779968261719,-18.85077476501465,2.613994598388672,9.770490646362305,15.303455352783203,-0.22930708527565002,-9.329741477966309,-10.268148422241211,-3.5510318279266357,-9.700440406799316,-7.568546295166016,8.377998352050781,6.777681827545166,21.944866180419922,1.2781291007995605,-4.367111682891846,-12.382941246032715,5.0105180740356445,2.779487133026123],[2.7791154384613037,9.258540153503418,-4.277195453643799,-7.142856121063232,5.6281232833862305,17.968050003051758,8.364479064941406,-16.616872787475586,-19.28325653076172,-11.225333213806152,-1.6001460552215576,8.686768531799316,-18.013473510742188,5.9370222091674805,-2.130297899246216,-6.990909576416016,-5.882593631744385,3.166579008102417,7.744077205657959,3.405332088470459],[5.361549377441406,-3.496858835220337,14.616357803344727,-8.351360321044922,-1.710915446281433,-22.608718872070312,4.635672569274902,5.322649955749512,13.63099479675293,-11.4988431930542,-3.1047463417053223,-11.60171890258789,-12.128820419311523,8.821057319641113,5.450843811035156,1.9073996543884277,-4.851265907287598,-31.964384078979492,-13.75755500793457,0.8234251737594604],[10.663826942443848,-13.233211517333984,7.709781646728516,-8.766018867492676,-6.500406265258789,-19.926774978637695,-10.105835914611816,4.259100437164307,6.250280857086182,-18.439245223999023,-6.188587188720703,-23.061506271362305,-8.634284019470215,-8.50189208984375,-11.52552318572998,-0.708644688129425,19.901107788085938,1.3050280809402466,7.935464859008789,-5.3475341796875],[-5.961828708648682,-9.253517150878906,-1.8918324708938599,4.296976089477539,1.7773913145065308,-27.23843765258789,13.90361499786377,5.707449913024902,13.851439476013184,-7.46420431137085,-18.90917205810547,-10.667352676391602,-10.76529598236084,2.799691677093506,-14.688267707824707,3.825403928756714,-3.942432165145874,4.5324249267578125,-16.28577995300293,-15.896605491638184],[17.065351486206055,-25.075984954833984,4.211409568786621,7.94141960144043,-4.417739391326904,-18.465190887451172,-14.922455787658691,6.024991512298584,11.50162410736084,-13.839401245117188,-2.3073503971099854,-2.439980983734131,-8.567380905151367,-4.283093452453613,3.554983615875244,-6.0907487869262695,-19.456300735473633,-0.070213682949543,-10.244552612304688,-12.005937576293945],[5.8527984619140625,1.8592958450317383,0.8662283420562744,5.808566093444824,-15.457742691040039,-19.41986656188965,-9.509635925292969,-28.868175506591797,8.696934700012207,-1.9521161317825317,-9.210715293884277,-21.761211395263672,-4.835384368896484,3.2388694286346436,-7.177249431610107,10.529607772827148,3.712547779083252,-0.8416067957878113,-11.441767692565918,-8.277737617492676]],"biases":[-8.209515571594238,-2.193567991256714,-1.6441673040390015,-14.488263130187988,-14.237687110900879,-12.001220703125,1.5070403814315796,3.246574878692627,6.516550064086914,8.56026554107666]}],"inputLookup":null,"inputLookupLength":0,"outputLookup":null,"outputLookupLength":0,"options":{"inputSize":0,"outputSize":0,"binaryThresh":0.5},"trainOpts":{"activation":"sigmoid","iterations":20000,"errorThresh":0.005,"log":true,"logPeriod":1,"leakyReluAlpha":0.01,"learningRate":0.3,"momentum":0.1,"callbackPeriod":10,"timeout":"Infinity","beta1":0.9,"beta2":0.999,"epsilon":1e-8}}