{"type":"NeuralNetwork","sizes":[40,20,10],"layers":[{"weights":[],"biases":[]},{"weights":[[17.02560806274414,12.070171356201172,-48.58720397949219,2.8905839920043945,4.419391632080078,10.768465042114258,2.2339494228363037,-25.557527542114258,-25.861465454101562,-10.342765808105469,32.97342300415039,-21.569232940673828,-14.768235206604004,-16.903167724609375,42.33015823364258,-12.116894721984863,2.3187406063079834,13.2833890914917,-8.102008819580078,-3.146589994430542,-20.10373878479004,-4.761336803436279,-32.694454193115234,4.5354180335998535,7.449797630310059,-18.250093460083008,5.268592357635498,25.73894691467285,-3.7724523544311523,-10.001181602478027,-23.694368362426758,-7.304642200469971,9.659899711608887,-13.285054206848145,-8.994807243347168,16.299697875976562,22.389694213867188,-16.76034927368164,31.961124420166016,6.093938827514648],[-7.3938889503479,30.0030517578125,-10.609062194824219,-24.547863006591797,-7.2536420822143555,-4.9904255867004395,3.611624002456665,13.762770652770996,-8.328532218933105,4.141483306884766,-32.89380645751953,11.695261001586914,24.404420852661133,-28.69828987121582,1.128690481185913,-13.26830005645752,-4.3121337890625,-25.01752281188965,50.44464111328125,16.63825225830078,-15.394579887390137,21.156904220581055,23.91429901123047,-6.47053861618042,-25.666717529296875,-25.171972274780273,17.914552688598633,-42.08737564086914,0.7176098823547363,5.070186138153076,-63.906463623046875,12.295975685119629,2.9840281009674072,14.697784423828125,-59.98103332519531,11.198705673217773,28.074975967407227,6.922475814819336,5.662660598754883,-16.78542709350586],[-23.70874786376953,-30.80689239501953,42.35173416137695,-23.73590850830078,-21.224502563476562,23.47257423400879,-16.794157028198242,-25.81517791748047,-35.238182067871094,8.926429748535156,7.334559440612793,-17.30168342590332,19.46908187866211,-23.657453536987305,3.852229356765747,-18.849390029907227,28.49181365966797,-1.2425801753997803,-1.1332366466522217,-30.061843872070312,-6.159360408782959,11.215710639953613,-25.446203231811523,-12.416808128356934,12.449723243713379,7.574398994445801,-1.364273190498352,13.86404800415039,-2.8666980266571045,-19.625429153442383,-27.486541748046875,10.943034172058105,12.25304126739502,8.249879837036133,13.914243698120117,-0.19101139903068542,28.421958923339844,10.077081680297852,-23.115928649902344,13.090643882751465],[-0.16029967367649078,20.7000732421875,23.363088607788086,-9.385744094848633,8.32236099243164,18.55419921875,-45.73213195800781,9.019840240478516,2.4088644981384277,-19.589284896850586,13.621068000793457,-0.5323631167411804,-1.94171142578125,-28.884689331054688,9.717466354370117,-17.926145553588867,22.113079071044922,0.25302645564079285,-40.08543395996094,-29.06313705444336,15.948915481567383,-13.757678985595703,-24.231590270996094,21.920616149902344,-18.637889862060547,2.7527670860290527,13.144024848937988,-8.37002944946289,2.3195180892944336,0.615364134311676,8.387767791748047,27.642976760864258,0.9161604642868042,-9.69517993927002,-6.942285060882568,-10.831911087036133,-12.629460334777832,-8.889056205749512,-35.0540771484375,6.986628532409668],[-1.8954083919525146,-13.38904094696045,-12.684322357177734,16.49286651611328,-7.844921112060547,-3.518285036087036,10.76681900024414,-4.466036796569824,4.879884719848633,17.54505729675293,4.2321367263793945,6.619513034820557,14.44895076751709,-1.2051395177841187,35.65374755859375,-11.40385627746582,3.8786118030548096,-3.6255061626434326,-92.43985748291016,16.489654541015625,-4.147170066833496,17.222129821777344,-13.248335838317871,-11.669769287109375,-5.108465194702148,-12.638494491577148,-16.908842086791992,-18.734336853027344,-4.646953582763672,2.057224988937378,-3.073152542114258,-12.915650367736816,17.79064178466797,-0.2327621728181839,-32.235721588134766,23.217735290527344,8.145142555236816,-5.987494468688965,-15.352587699890137,11.964768409729004],[-19.742473602294922,-11.266928672790527,-59.877933502197266,23.291231155395508,-15.06173324584961,2.350637912750244,-11.799373626708984,7.212308406829834,2.7197046279907227,10.961078643798828,-14.606279373168945,11.189567565917969,10.351729393005371,-10.851018905639648,-32.933387756347656,23.22382926940918,-18.948169708251953,-2.6687064170837402,19.722558975219727,21.87015724182129,11.671446800231934,24.10349464416504,-65.83631134033203,13.09963607788086,-0.688857913017273,-4.547877311706543,9.538257598876953,-3.577831745147705,-12.0773344039917,-7.581328392028809,21.458038330078125,6.467109203338623,5.27131462097168,5.411576747894287,2.2131614685058594,3.025740146636963,-8.317159652709961,-12.624167442321777,13.87260627746582,-9.848851203918457],[17.748340606689453,-4.155519008636475,-42.029380798339844,-5.134787559509277,-12.839656829833984,-14.874855995178223,-41.61127471923828,15.57451343536377,-11.757515907287598,3.1329078674316406,-25.963228225708008,-6.796521186828613,-4.166780948638916,-8.20435905456543,6.781067371368408,26.61060905456543,15.433530807495117,7.716032028198242,-0.6354073286056519,12.035272598266602,4.749236583709717,-4.359684467315674,-1.4675400257110596,-30.293916702270508,10.438356399536133,3.844547986984253,-42.95509719848633,20.386552810668945,-8.912955284118652,-1.1384943723678589,13.4440336227417,-8.940122604370117,8.477510452270508,17.8663387298584,2.710055112838745,23.940656661987305,-4.481932163238525,6.555881023406982,-8.085989952087402,13.999992370605469],[-11.139323234558105,-9.795759201049805,66.6335220336914,-2.6557629108428955,-22.19906234741211,9.085555076599121,24.689502716064453,31.43699073791504,-22.969045639038086,-4.265735149383545,18.35370445251465,12.436385154724121,0.868111789226532,-4.957611560821533,-64.4849624633789,-26.47718048095703,6.0364909172058105,10.731101036071777,1.190286636352539,-24.059825897216797,23.559417724609375,-11.850303649902344,-29.376998901367188,15.071290969848633,-6.332339763641357,5.030842304229736,-9.299781799316406,28.146203994750977,37.148109436035156,6.562267303466797,-28.617897033691406,19.5067138671875,-0.605492889881134,-7.705654621124268,8.566469192504883,17.186433792114258,27.961809158325195,-6.239145755767822,15.183115005493164,27.007753372192383],[-10.386290550231934,15.583995819091797,-25.740779876708984,5.92763090133667,21.57463836669922,11.360180854797363,-1.960789442062378,-4.8523688316345215,11.6111421585083,-13.345098495483398,0.25825196504592896,-6.009535789489746,-6.723541736602783,2.9955286979675293,-33.12635803222656,-1.8759044408798218,1.4808546304702759,-14.44013786315918,-34.955101013183594,11.81822681427002,0.08947007358074188,-23.881277084350586,-21.429792404174805,7.420526504516602,2.351235866546631,-2.7597908973693848,-7.796319484710693,11.939420700073242,8.495319366455078,7.9556684494018555,-5.352287292480469,4.143916606903076,15.038289070129395,-6.483447074890137,-21.738849639892578,-0.2526944577693939,-4.207733631134033,-13.839217185974121,-17.133817672729492,5.237771987915039],[-14.46753978729248,-5.815040111541748,0.8111140131950378,28.40571403503418,-14.669143676757812,-2.030014753341675,-52.15386962890625,-10.731724739074707,-17.15692901611328,29.052818298339844,-36.33568572998047,0.2732717990875244,-5.462627410888672,-21.390975952148438,-31.00861358642578,32.18888854980469,11.878569602966309,-3.212589979171753,-6.760944843292236,18.835054397583008,20.93419075012207,6.168159008026123,-18.76853370666504,-1.436644196510315,-6.5526509284973145,-16.526403427124023,48.615570068359375,-22.769634246826172,6.319504261016846,-17.93994140625,-4.223024368286133,-8.109886169433594,31.368305206298828,9.422842979431152,-53.98821258544922,-1.291920781135559,24.903066635131836,-2.7661869525909424,-1.228874921798706,-4.829802989959717],[-0.022733265534043312,-11.490714073181152,-2.3727025985717773,9.076519966125488,-22.809274673461914,-0.8590599298477173,10.053773880004883,-1.7726459503173828,8.107733726501465,5.57163667678833,-52.94803237915039,-10.595146179199219,-0.17597320675849915,-28.891429901123047,7.797901153564453,14.65767765045166,6.063253402709961,13.938517570495605,-51.67104721069336,-31.149742126464844,2.446908473968506,-2.2170913219451904,-12.909656524658203,23.141035079956055,-2.060228109359741,-5.055957794189453,10.114592552185059,-19.403772354125977,12.4946928024292,1.0805583000183105,-13.474267959594727,3.2462668418884277,-2.3518149852752686,-5.23621940612793,29.74625015258789,0.8114755749702454,-15.061823844909668,0.82216876745224,23.554767608642578,9.907151222229004],[-6.284099578857422,-15.742692947387695,-20.50922393798828,14.500372886657715,18.73093605041504,30.242523193359375,-43.07192611694336,17.408411026000977,-11.472193717956543,2.499727487564087,-34.84893798828125,-6.979331016540527,21.17595863342285,-24.687265396118164,-44.10385513305664,35.134063720703125,29.231189727783203,-3.2086968421936035,-55.73461151123047,22.670164108276367,-6.712749004364014,11.97423267364502,32.88083267211914,-21.69696044921875,-3.384519577026367,10.688675880432129,13.748769760131836,-37.097042083740234,1.1300393342971802,14.898691177368164,14.595791816711426,27.94480323791504,-7.247657775878906,-9.911792755126953,-10.92790699005127,-18.310270309448242,0.5541204214096069,14.892528533935547,14.009732246398926,-26.79734992980957],[29.493961334228516,-17.364154815673828,-1.1599743366241455,30.206457138061523,7.325469493865967,7.543068885803223,-19.358854293823242,-5.540846824645996,19.105566024780273,-15.820511817932129,47.186466217041016,-33.12662887573242,-3.1166982650756836,15.015645980834961,-20.17101287841797,-18.53131866455078,-2.690622329711914,-5.007950782775879,34.571598052978516,9.943330764770508,-9.006958961486816,-19.062536239624023,-20.867416381835938,3.581521987915039,-12.427131652832031,7.164395332336426,-14.085384368896484,-4.270156383514404,8.888755798339844,-0.3294220268726349,-35.90542984008789,-16.353933334350586,-14.048449516296387,2.8700685501098633,-33.53326416015625,-9.372153282165527,0.8320642709732056,14.589437484741211,-56.078033447265625,3.8808491230010986],[-8.09229850769043,21.118053436279297,14.22283935546875,-34.769996643066406,21.366193771362305,13.876069068908691,-59.445430755615234,-14.255122184753418,-4.585011005401611,-0.8384021520614624,-25.473968505859375,35.86713790893555,-2.6140477657318115,-15.65186595916748,-57.95808029174805,-2.4283480644226074,7.869789123535156,-9.199409484863281,1.9476447105407715,-21.877328872680664,-4.1188063621521,7.912681579589844,1.2156918048858643,-7.067533493041992,-9.646761894226074,-24.21065330505371,10.795438766479492,-0.10978957265615463,1.498328685760498,1.0208598375320435,27.51582908630371,23.883747100830078,7.1554436683654785,-0.15953850746154785,12.154415130615234,0.8648878335952759,17.567842483520508,-8.607043266296387,-35.70305633544922,17.65657615661621],[0.46154114603996277,-7.196232318878174,-3.4526607990264893,19.47540283203125,-12.349882125854492,8.438749313354492,8.209178924560547,12.03230094909668,2.1089982986450195,-16.620996475219727,-45.031158447265625,22.356006622314453,13.397137641906738,-20.944255828857422,-6.983727931976318,-2.698533296585083,-30.021625518798828,-4.942081451416016,-17.897218704223633,-8.964618682861328,23.262847900390625,-13.069050788879395,10.237711906433105,-14.548685073852539,-8.755919456481934,7.893274784088135,-14.91422176361084,33.3549919128418,-2.2350780963897705,-14.514649391174316,13.339693069458008,-17.76540184020996,3.9217379093170166,4.745429039001465,34.813377380371094,-5.2151408195495605,33.79377365112305,-3.924741268157959,-4.696357250213623,-13.926098823547363],[2.8098995685577393,-11.240498542785645,-35.9173698425293,23.37666130065918,15.786959648132324,-7.705222129821777,-17.270246505737305,9.7944917678833,-17.066240310668945,3.1911380290985107,14.936264038085938,9.15632438659668,-7.14358377456665,8.885433197021484,22.48633575439453,16.51299476623535,-8.518678665161133,7.078088283538818,-15.096513748168945,12.495044708251953,6.883521556854248,4.524023532867432,9.106077194213867,-16.28997230529785,-12.09066104888916,-11.761666297912598,-10.160956382751465,10.079146385192871,-0.4465779662132263,-9.295855522155762,-78.10057067871094,9.487109184265137,-0.5854293704032898,12.949173927307129,33.88224792480469,14.367624282836914,17.749666213989258,-10.92246150970459,-14.476136207580566,-42.47907638549805],[-10.307841300964355,2.306858539581299,4.257566452026367,-6.354475975036621,20.47178077697754,5.720545291900635,-46.4715690612793,-25.421159744262695,4.487710952758789,2.5398926734924316,-35.59872817993164,11.623445510864258,-3.0111920833587646,2.728729486465454,14.8624267578125,4.813238620758057,4.106240749359131,-8.172179222106934,4.366260528564453,4.326223373413086,0.7498136162757874,8.633477210998535,5.717925071716309,-8.66260051727295,6.6385016441345215,-3.1393043994903564,-42.229515075683594,-25.572479248046875,-11.038972854614258,2.066551446914673,7.861866474151611,-4.339629173278809,4.405985355377197,-11.080771446228027,-34.596900939941406,-6.220677852630615,-8.541963577270508,-20.620229721069336,54.97883224487305,11.750096321105957],[5.713419437408447,-3.0783169269561768,16.998979568481445,-3.858443260192871,-0.16117039322853088,15.333539962768555,17.95136260986328,0.19916826486587524,-2.6850011348724365,4.728875637054443,-70.28150939941406,-0.06487005949020386,-3.766932249069214,-17.501298904418945,28.542221069335938,-6.274586200714111,3.776313304901123,0.566389799118042,33.024574279785156,-2.946176290512085,-5.806341171264648,-13.092787742614746,-5.61830472946167,27.184906005859375,2.0364246368408203,15.437530517578125,-23.841384887695312,8.18293571472168,1.3610223531723022,0.20364032685756683,-41.701236724853516,10.946723937988281,-19.4228458404541,-10.918843269348145,-4.4823317527771,24.981658935546875,-6.783817291259766,13.470307350158691,-36.536354064941406,-16.30476188659668],[11.955986976623535,-9.051863670349121,14.316749572753906,0.5696308016777039,-11.204177856445312,0.05955170840024948,-28.05893898010254,7.622241497039795,-16.17041778564453,-12.369449615478516,-6.401178359985352,-5.613772869110107,10.95584774017334,-3.076841115951538,33.133995056152344,-29.8933162689209,7.759939670562744,0.5595986843109131,-44.791015625,-3.7536418437957764,-12.817319869995117,29.934049606323242,-6.961558818817139,5.791594982147217,0.33294329047203064,-23.360713958740234,10.421016693115234,-19.06542205810547,4.295627593994141,5.169178009033203,-22.839738845825195,16.149375915527344,-4.718111515045166,14.725570678710938,-31.03083038330078,24.896198272705078,2.8944833278656006,-7.5429229736328125,2.0531508922576904,4.264069557189941],[9.260248184204102,-3.0049710273742676,8.83144474029541,5.695178508758545,-0.7198701500892639,-4.614544868469238,47.77531814575195,3.453908920288086,-5.657447814941406,-9.620407104492188,14.602325439453125,-24.956022262573242,15.303704261779785,12.95358943939209,-59.92799377441406,-5.588754177093506,19.04497718811035,-6.8563385009765625,-8.081008911132812,-14.909767150878906,-6.443673610687256,2.0727317333221436,-10.570243835449219,8.824601173400879,-13.47584342956543,-9.850436210632324,-8.623056411743164,-10.095507621765137,-7.753396511077881,-12.099008560180664,3.3177669048309326,-1.8580836057662964,0.34460681676864624,19.35881805419922,-52.851593017578125,11.99949836730957,-0.3118610084056854,-2.2164552211761475,-28.115371704101562,3.747847557067871]],"biases":[5.110125541687012,10.432629585266113,-16.380687713623047,17.055912017822266,27.133899688720703,49.61190414428711,-13.566049575805664,-43.69712829589844,-18.41344451904297,-33.582603454589844,10.402603149414062,-10.649724960327148,-2.8442158699035645,17.684526443481445,-29.556976318359375,22.171735763549805,8.42348861694336,11.924205780029297,-8.746005058288574,12.346147537231445]},{"weights":[[-50.05463790893555,-7.4902801513671875,30.604948043823242,9.494736671447754,-9.05627155303955,-48.2758674621582,-17.754919052124023,30.030845642089844,31.716938018798828,-6.788146018981934,-27.72024917602539,-27.923614501953125,-11.665121078491211,-19.143644332885742,-31.131282806396484,-23.808208465576172,14.852524757385254,14.49316692352295,31.826677322387695,-3.966488838195801],[15.092941284179688,16.08832550048828,1.7812705039978027,-23.29571533203125,19.671316146850586,-8.99286937713623,-37.5233154296875,17.895029067993164,-19.883575439453125,-18.323806762695312,1.0553885698318481,-16.92271614074707,-38.13787078857422,-31.988794326782227,-1.9720938205718994,-23.852235794067383,-20.530662536621094,18.060985565185547,-23.884933471679688,29.52679443359375],[39.185462951660156,-1.5143001079559326,29.068206787109375,25.17485809326172,6.7674994468688965,-1.4048913717269897,4.522937297821045,22.052024841308594,3.8436880111694336,-20.742645263671875,-41.778926849365234,-19.050548553466797,14.497953414916992,-31.029542922973633,-37.25337219238281,-5.892279624938965,-27.177106857299805,-45.92085647583008,-12.89400863647461,5.087043762207031],[14.976256370544434,14.050189971923828,35.92997741699219,44.48780822753906,27.491775512695312,6.16956090927124,0.4832809269428253,-26.453126907348633,-11.916084289550781,-19.07644271850586,-13.824965476989746,-44.83388137817383,-8.49209976196289,-31.75051498413086,-9.445572853088379,9.627785682678223,-8.042206764221191,21.886363983154297,3.8092901706695557,-63.530616760253906],[-24.49752426147461,38.027347564697266,25.295764923095703,1.9780200719833374,-30.202651977539062,36.6866455078125,-15.14616870880127,6.933907508850098,-8.780645370483398,-37.55075454711914,-18.946975708007812,-39.44739532470703,33.583839416503906,-7.018133640289307,-33.41127014160156,0.2020110934972763,15.398950576782227,20.489036560058594,-22.98914337158203,-16.374950408935547],[-30.20431137084961,-21.260345458984375,-17.338380813598633,-32.709815979003906,-16.8443660736084,-48.663856506347656,-10.379378318786621,-19.749300003051758,-23.927597045898438,26.946382522583008,-1.2098599672317505,29.353586196899414,-5.450473308563232,8.164140701293945,28.0048828125,16.076332092285156,4.696125030517578,-11.810182571411133,31.02492332458496,-21.053062438964844],[-0.49997344613075256,-21.146398544311523,-38.23942184448242,-19.096609115600586,-23.739877700805664,-9.86259937286377,-43.5389289855957,-24.917789459228516,-40.31686782836914,45.9075927734375,24.667339324951172,22.0498046875,0.5606524348258972,19.351116180419922,8.029136657714844,-9.513290405273438,-25.99148941040039,-16.21089744567871,32.195892333984375,7.286017417907715],[12.076737403869629,-49.28367614746094,-17.439292907714844,1.6256886720657349,-20.047164916992188,4.330145359039307,-3.1175427436828613,-31.558650970458984,-34.037071228027344,33.80916213989258,-25.402793884277344,14.830240249633789,-15.194937705993652,9.9032621383667,38.148983001708984,-27.146577835083008,3.7951858043670654,-18.187206268310547,20.349964141845703,7.255706787109375],[-18.896671295166016,-33.80437469482422,-20.097007751464844,-5.7650146484375,-28.27437400817871,-11.24510669708252,-25.83809471130371,-18.646448135375977,-29.69930076599121,-20.651317596435547,20.89483642578125,16.82999038696289,-22.696016311645508,13.255863189697266,30.149045944213867,27.494293212890625,-29.442760467529297,-27.975547790527344,15.681709289550781,-37.18694305419922],[3.1598188877105713,-18.50836753845215,-42.2563591003418,-30.57170867919922,-33.13142013549805,-7.472586631774902,-22.456321716308594,13.558309555053711,8.359302520751953,3.359647274017334,21.587970733642578,28.779748916625977,-23.082345962524414,-22.83356285095215,12.276522636413574,-4.773281097412109,41.04758071899414,-31.558273315429688,33.28875732421875,-26.862112045288086]],"biases":[-0.48274827003479004,1.5001667737960815,-17.24169921875,-21.11542320251465,-22.722055435180664,0.33934929966926575,1.9262155294418335,1.8858718872070312,16.901832580566406,-7.680102825164795]}],"inputLookup":null,"inputLookupLength":0,"outputLookup":null,"outputLookupLength":0,"options":{"inputSize":0,"outputSize":0,"binaryThresh":0.5},"trainOpts":{"activation":"sigmoid","iterations":20000,"errorThresh":0.0001,"log":true,"logPeriod":1,"leakyReluAlpha":0.01,"learningRate":0.3,"momentum":0.1,"callbackPeriod":10,"timeout":"Infinity","beta1":0.9,"beta2":0.999,"epsilon":1e-8}}