{"type":"NeuralNetwork","sizes":[40,20,10],"layers":[{"weights":[],"biases":[]},{"weights":[[-0.3191073536872864,0.1332612782716751,0.008451132103800774,1.3849650621414185,-0.16190111637115479,0.05399521812796593,0.049058057367801666,1.413773536682129,0.16744595766067505,-0.10317450016736984,-0.022863544523715973,1.4384669065475464,-3.4760634899139404,-3.559536933898926,-3.990936040878296,-1.894331932067871,0.20256544649600983,0.10941644757986069,0.0363953560590744,1.3638166189193726,-0.08465328067541122,-0.02666136436164379,-22.073944091796875,-1.3186137676239014,0.05727626383304596,0.25467976927757263,-0.13393987715244293,-1.1964197158813477,0.048712484538555145,-0.1985630989074707,-0.1368633508682251,-1.2260483503341675,-0.01811455748975277,-0.08852463960647583,-0.29096099734306335,-1.140986442565918,-0.1803388148546219,-0.15057113766670227,-0.08959172666072845,-1.1727579832077026],[0.16657088696956635,0.1446487307548523,0.24078090488910675,1.0051757097244263,-0.04833909869194031,-0.0448186881840229,-0.1137552410364151,1.0000600814819336,0.3601539433002472,0.003810938447713852,-0.2131292223930359,1.1289583444595337,3.208406686782837,3.3067684173583984,-4.578679084777832,-2.16999888420105,0.08189010620117188,0.2653220295906067,-0.031715258955955505,1.1325424909591675,-0.2956266403198242,0.03997347503900528,-0.8746198415756226,-1.1579774618148804,0.06335126608610153,-0.1174573302268982,0.0010702887084335089,-1.2643980979919434,0.1236276626586914,0.09229253232479095,0.08595920354127884,-1.2037887573242188,-0.06398364901542664,-0.10290541499853134,0.04175335168838501,-0.9362087249755859,0.10799210518598557,-0.07868433743715286,-21.255638122558594,-1.0020097494125366],[-0.4129231572151184,-0.3735475242137909,-0.3576555550098419,-0.9421310424804688,-0.10677805542945862,-0.27787449955940247,-0.2537977397441864,-1.0156670808792114,-0.4392169415950775,-0.24966606497764587,-0.43202245235443115,-1.0702491998672485,-0.1882883906364441,-0.0010387595975771546,-0.34331995248794556,-0.7636715173721313,9.516134262084961,9.484381675720215,-4.252697467803955,-6.388891220092773,-0.39424994587898254,-0.253750741481781,-0.9688349366188049,-0.3648168742656708,-0.20652435719966888,-0.20981816947460175,-1.3974473476409912,-0.22836901247501373,-0.22624807059764862,-0.10938574373722076,-1.1229825019836426,0.14406991004943848,-0.34448882937431335,-0.28619107604026794,-0.7015390396118164,-0.011929701082408428,-0.23324057459831238,0.09219250082969666,-0.7199811935424805,-0.2652953267097473],[-0.12898553907871246,0.11416678875684738,-0.1702895164489746,0.14916086196899414,-0.11347073316574097,0.2726792097091675,-0.03350234776735306,-0.5165508985519409,0.3450005054473877,-0.3178311884403229,0.5399783849716187,0.5536972284317017,3.317610740661621,3.537949323654175,-26.70630645751953,-0.949841320514679,-0.4250486493110657,0.16598305106163025,0.4456997811794281,0.09546474367380142,0.017418891191482544,-0.36816704273223877,-0.1609862744808197,-0.16273526847362518,0.1255854219198227,0.6839731335639954,0.08002161234617233,-0.20117896795272827,-0.17218174040317535,-0.23356084525585175,-0.15663385391235352,1.0872759819030762,0.45623379945755005,-0.20260584354400635,0.5536598563194275,0.42440739274024963,0.3598686456680298,-0.38064607977867126,4.224728107452393,0.28656837344169617],[-0.023954560980200768,0.04986158385872841,-0.27326083183288574,0.2906407415866852,-0.11437756568193436,-0.030953312292695045,-0.21902471780776978,0.29884564876556396,-0.130086749792099,-0.023413030430674553,-0.30579233169555664,0.2148166447877884,-0.39195844531059265,-0.3917439877986908,-0.32561033964157104,-0.2272152453660965,0.200884610414505,-0.04489680379629135,-0.11911490559577942,0.3246661424636841,-8.377152442932129,-8.2460298538208,24.293489456176758,-0.9630783200263977,-0.17305207252502441,-0.0713689848780632,-0.04070308431982994,-0.35647520422935486,-0.20162390172481537,-0.0924600139260292,-0.3248051404953003,-0.6167512536048889,0.13328294456005096,-0.007525781635195017,0.013201922178268433,-0.2862113118171692,-0.046855468302965164,-0.13846240937709808,-0.014525284059345722,-0.7156586050987244],[0.13640743494033813,0.02295784279704094,-0.03767389431595802,-1.441089153289795,-8.423556327819824,-8.234593391418457,11.412220001220703,-0.8604916930198669,-0.08261483162641525,-0.20758618414402008,-0.15214891731739044,-1.6514538526535034,-0.18821853399276733,-0.14412739872932434,0.018674219027161598,-1.4366384744644165,-0.16513897478580475,0.06852740049362183,0.04711447283625603,-1.6369372606277466,0.2239179164171219,-0.032840605825185776,-0.11716273427009583,1.4700719118118286,-0.26008567214012146,-0.23491264879703522,-10.399874687194824,1.2760376930236816,-0.24045729637145996,0.14781655371189117,0.020119687542319298,1.525547981262207,0.2193511724472046,-0.0030045730527490377,-0.07650972902774811,1.787987232208252,-0.008751682937145233,0.21753384172916412,0.04308055341243744,1.5806951522827148],[0.11899752169847488,-0.011757497675716877,-0.14640210568904877,1.8881945610046387,-0.07618629932403564,-0.1735309660434723,-0.09951791167259216,1.8892276287078857,0.028760230168700218,0.23771324753761292,-0.46276676654815674,1.555871844291687,-0.062381353229284286,0.0817500576376915,0.061870276927948,1.855983853340149,0.035566188395023346,0.17051614820957184,0.07937733829021454,2.0642800331115723,0.07985404878854752,0.08291741460561752,0.05230097472667694,-1.7184574604034424,0.03897522762417793,0.09058672934770584,-0.10374003648757935,-1.835655927658081,-0.3828137516975403,-0.39972007274627686,-15.632701873779297,-1.258514165878296,0.07596256583929062,-0.07381895184516907,0.379105806350708,-1.8624600172042847,-0.053799957036972046,-0.012729134410619736,0.02052900940179825,-1.7760889530181885],[0.10832121223211288,0.17709870636463165,-0.1164274662733078,-0.06872355937957764,0.07743515819311142,-0.19246016442775726,-0.010793132707476616,-0.1923733800649643,0.041602637618780136,-0.16075745224952698,0.02257121540606022,0.11014335602521896,-0.7189512252807617,-0.775748074054718,0.3100754916667938,0.14979204535484314,-0.035938240587711334,0.0625784695148468,-0.07558822631835938,-0.291949987411499,0.19922679662704468,-0.0016186515567824244,0.747270405292511,-0.08211737871170044,0.07613314688205719,0.05471265688538551,0.0756940245628357,0.07772741466760635,0.20831701159477234,0.00608074339106679,0.12646806240081787,0.09661220014095306,0.07707405835390091,0.024624770507216454,-0.01220290269702673,0.4365288317203522,8.414636611938477,8.561013221740723,-23.970909118652344,-0.8176324367523193],[0.021583791822195053,-0.27621889114379883,-0.3602585196495056,13.746883392333984,-0.12263762950897217,0.05931704863905907,-0.09352939575910568,13.354248046875,-0.03599521517753601,-0.17174625396728516,-0.08211058378219604,13.572074890136719,0.40312474966049194,0.18516860902309418,0.15652665495872498,13.774377822875977,0.02793554775416851,0.1413988322019577,-0.18160614371299744,13.735987663269043,0.32804247736930847,0.3995263874530792,0.15582047402858734,-13.427041053771973,-0.08682940900325775,-0.02063768543303013,-0.08358892798423767,-12.985505104064941,-0.13012957572937012,0.1443018913269043,0.43966567516326904,-13.163554191589355,-0.07500091940164566,0.4713166058063507,0.5220313668251038,-13.34622573852539,0.0039769504219293594,0.4213706851005554,0.3698025047779083,-13.505009651184082],[-0.017613425850868225,0.2262982875108719,-0.05933887138962746,0.062100522220134735,-0.2412414848804474,0.25602707266807556,-0.27712517976760864,-0.024335607886314392,-0.054513975977897644,-0.1641492247581482,0.046684086322784424,-0.5582442283630371,-0.15003736317157745,-0.17423813045024872,0.04553960636258125,-0.3141660988330841,-0.5425598621368408,-1.0606962442398071,16.736825942993164,0.6699042320251465,-0.14870834350585938,-0.330691397190094,-2.011268138885498,-0.5226365327835083,-0.2933974266052246,-0.18829797208309174,-0.4676218628883362,-0.15121471881866455,-0.6308972835540771,-0.2961043417453766,-0.12278153002262115,-0.250296026468277,-0.18116265535354614,-0.18127398192882538,-0.4484139084815979,-0.09221207350492477,-0.170452281832695,-0.19718678295612335,-0.2225615531206131,-0.037235330790281296],[0.8510573506355286,0.21466438472270966,0.28744056820869446,0.5232385396957397,-0.4881341755390167,-0.40974751114845276,-0.22610817849636078,-0.8581517934799194,4.247745513916016,4.779745101928711,-32.67392349243164,-0.5372477769851685,0.707581102848053,0.6403098702430725,-0.4284308850765228,-0.16335953772068024,-0.6576124429702759,0.14476622641086578,0.011979121714830399,-0.01075779553502798,0.2893214225769043,0.6759145259857178,0.826346218585968,0.08712918311357498,0.16763406991958618,-0.20743367075920105,0.13912692666053772,0.4920977056026459,-0.34805989265441895,-0.07616481930017471,1.0299612283706665,0.06946143507957458,0.6083766222000122,0.18388180434703827,5.28392219543457,0.7201533913612366,-0.2303309589624405,0.4573497176170349,0.17595653235912323,0.42848604917526245],[9.612040519714355,9.906441688537598,-16.471492767333984,-4.364028453826904,-0.08625013381242752,-0.057285670191049576,-0.1830947995185852,-0.7978617548942566,-0.18630924820899963,-0.15237264335155487,-0.3234196603298187,-0.6716750264167786,-0.13507232069969177,-0.21476897597312927,-0.11862252652645111,-0.7771909832954407,-0.20376789569854736,-0.04713638499379158,-0.1128455400466919,-0.7987632155418396,-0.3292023241519928,-0.00735589861869812,-0.37792932987213135,-0.21276085078716278,-0.007089107763022184,-0.4361734390258789,-0.7221201658248901,-0.02675165981054306,-0.29727813601493835,-0.3630259335041046,-0.6424096822738647,-0.2620638608932495,-0.38212573528289795,-0.37771373987197876,-0.4779052138328552,-0.004931251052767038,-0.3725593090057373,-0.26519349217414856,-0.33277255296707153,0.06673073023557663],[-0.11160330474376678,-0.054320067167282104,-0.008577939122915268,2.5603256225585938,-0.05877694487571716,0.07600437849760056,0.06742250919342041,2.6418864727020264,3.553921937942505,3.2637882232666016,-3.6968140602111816,-0.5283411145210266,0.010831864550709724,-0.00522227818146348,-0.18435081839561462,2.6141977310180664,0.038905639201402664,0.06617480516433716,0.057493656873703,2.7714500427246094,0.031920477747917175,0.04001086577773094,-0.011255153454840183,-2.2265655994415283,-0.01984838768839836,0.04820309579372406,0.03890996426343918,-2.292278528213501,0.07916729152202606,0.09074252098798752,0.20748674869537354,-2.059260606765747,-0.38848763704299927,-0.14184510707855225,-27.12066078186035,-2.483670949935913,0.0733753889799118,-0.00302058644592762,-0.22563283145427704,-2.314110279083252],[-0.49815329909324646,-0.6554946303367615,-1.3233493566513062,-5.129983425140381,-0.7036765217781067,-0.8562836050987244,-2.489922285079956,-4.8778276443481445,10.164052963256836,10.265236854553223,-2.3977720737457275,-8.315520286560059,-0.8737430572509766,-1.0914721488952637,-2.017653226852417,-5.067256927490234,-0.8335150480270386,-0.4166865944862366,-2.171621084213257,-4.821133613586426,-0.2449115365743637,-0.2579195201396942,-0.6538215279579163,2.190211057662964,-0.5795968770980835,-0.5480725169181824,-0.8686478137969971,2.6941394805908203,-0.7364500164985657,-0.7998920679092407,0.08613979816436768,2.5786004066467285,-0.4444420635700226,-0.9971631169319153,2.0387978553771973,3.4487721920013428,-0.4603809416294098,-0.49806511402130127,-0.3908444941043854,2.644855499267578],[0.05515502765774727,0.16609664261341095,-0.04231642931699753,0.3815458416938782,2.481773853302002,2.7566299438476562,-1.6221842765808105,0.7581946849822998,0.061573900282382965,-0.03755330666899681,-0.2560371458530426,0.31848904490470886,0.10096235573291779,0.04302961006760597,0.056852906942367554,0.6058865785598755,-0.025462556630373,-0.10462815314531326,-0.11554168909788132,0.19132573902606964,0.01400360744446516,-0.10244961827993393,-0.10193093121051788,-0.14272108674049377,-0.24150563776493073,-0.5895169973373413,-15.26866340637207,-1.098124623298645,0.16830143332481384,-0.010838058777153492,-0.1065128818154335,-0.03252400457859039,0.01681770570576191,-0.1955820918083191,-0.2367294281721115,-0.178803488612175,0.08452755212783813,0.13096100091934204,-0.039256758987903595,-0.20226620137691498],[0.07532475888729095,-0.16257567703723907,-0.28407585620880127,-0.06391733884811401,-0.11135053634643555,-0.3034231662750244,-0.6726911664009094,-0.15421175956726074,-0.010541182942688465,0.0018584677018225193,0.1904134452342987,0.24301522970199585,-0.2053377330303192,0.16851800680160522,-0.06532498449087143,-0.09354718029499054,-0.18401291966438293,0.04834216088056564,-0.1488088220357895,-0.08795053511857986,0.01840982213616371,-0.14625190198421478,-0.16205903887748718,-0.22984404861927032,8.45044231414795,8.515392303466797,-18.702484130859375,-1.005518913269043,-0.13424935936927795,-0.0433105044066906,-0.08080793917179108,-0.4189040958881378,-0.15789540112018585,0.13737042248249054,-0.10339239984750748,-0.5884320735931396,-0.2308928370475769,0.1625402718782425,-0.25138401985168457,-0.3481527864933014],[-0.11655502021312714,-0.2539183795452118,-0.5786473155021667,-0.1390458643436432,-0.09063518047332764,-0.25601786375045776,-0.39982345700263977,-0.18408958613872528,-0.13233394920825958,-0.2622568607330322,-0.5591903328895569,-0.4840267300605774,-0.145429328083992,-0.33311784267425537,-0.5026888251304626,-0.19939106702804565,0.02218339964747429,-0.1748509258031845,-0.542442798614502,-0.3220427334308624,-0.18408910930156708,-0.3801059126853943,-0.20017017424106598,-0.3531011939048767,-0.23065689206123352,-0.27870485186576843,-0.22648769617080688,-0.4731743037700653,9.510619163513184,9.600440979003906,-3.24381685256958,-4.43488073348999,-0.20004510879516602,-0.19095663726329803,-0.6331971883773804,-0.4712769091129303,-0.5847399234771729,-0.1889820694923401,-0.6143096685409546,-0.3620225787162781],[-0.20087194442749023,-0.21310250461101532,-0.047134578227996826,-0.037757184356451035,-0.10881806164979935,-0.1512409895658493,-0.052119914442300797,0.20651768147945404,-0.15123842656612396,-0.24774928390979767,0.11003916710615158,0.14133812487125397,-0.2236884981393814,-0.2962603271007538,-0.3617730438709259,-0.13842709362506866,0.0015748996520414948,-0.2802724242210388,-0.0998821035027504,0.17968304455280304,-0.25452303886413574,-0.0847444012761116,-0.19770842790603638,-0.4091971814632416,-0.3345581591129303,-0.08279166370630264,-0.17658382654190063,-0.2371940314769745,-0.1641327142715454,0.02289224974811077,-0.30437466502189636,-0.597643256187439,9.437394142150879,9.479013442993164,-11.863920211791992,-0.5357853770256042,-0.2598671019077301,0.07812327891588211,-0.2887502610683441,-0.5749071836471558],[-0.2976701557636261,-0.5866517424583435,-15.738492012023926,-2.753089427947998,-0.08769121766090393,0.02414015494287014,-0.1956617683172226,-2.622314214706421,-0.11418937146663666,-0.020590001717209816,-0.10400399565696716,-2.7641923427581787,-0.021463241428136826,0.08856821060180664,-0.1249035894870758,-2.8320870399475098,-0.026585809886455536,0.07084693759679794,-0.056003183126449585,-2.5521068572998047,-0.25346964597702026,-0.15594196319580078,-1.7364786863327026,1.3329986333847046,-0.13338108360767365,0.09049446880817413,0.004688148386776447,2.5765771865844727,-0.002013572258874774,-0.042470723390579224,-0.10229514539241791,2.6015918254852295,0.004214528948068619,0.16319312155246735,-0.26079922914505005,2.820971727371216,-0.12997712194919586,-0.015065832063555717,-0.2782041132450104,2.5203440189361572],[-0.12386222928762436,0.21564413607120514,-0.10695353150367737,-2.9527084827423096,-0.7965426445007324,-0.5247843265533447,-16.270978927612305,-3.631776809692383,-0.14137764275074005,-0.22906002402305603,-0.37544581294059753,-2.7902092933654785,-0.1484624743461609,-0.049867894500494,-0.2082960307598114,-2.8873181343078613,0.07747352123260498,-0.017920274287462234,-0.04046253859996796,-3.0215792655944824,-0.0396033376455307,-0.06515980511903763,-1.1930025815963745,1.7195236682891846,-0.10083987563848495,-0.1675763875246048,0.0604839064180851,2.74729585647583,-0.1428244709968567,-0.17334625124931335,-0.22093050181865692,2.7625985145568848,0.027001064270734787,0.029329543933272362,-0.3784390389919281,2.6310269832611084,-0.1256202608346939,-0.19005532562732697,-0.3841902017593384,2.3662991523742676]],"biases":[13.75629997253418,0.3030183017253876,-10.533122062683105,3.8164420127868652,-4.046141147613525,5.536545276641846,0.49081361293792725,4.018955707550049,4.166314601898193,-1.0780723094940186,4.857314586639404,-0.7665035128593445,0.11567617952823639,-11.760364532470703,-1.438624620437622,1.4698394536972046,-12.694971084594727,-6.937770843505859,1.9371808767318726,3.41317081451416]},{"weights":[[-0.07670135796070099,-0.2699679732322693,0.3788912892341614,0.07134289294481277,0.04364964738488197,0.4634162187576294,0.021715529263019562,-0.19048304855823517,-11.50927448272705,0.47266969084739685,0.4155084192752838,-5.472243785858154,-0.18167559802532196,-0.11435246467590332,-0.033546723425388336,0.11274231970310211,-0.2214810848236084,-0.06304583698511124,-13.708486557006836,0.1042182520031929],[-0.05959198251366615,0.012266756035387516,0.22727514803409576,0.08932407945394516,-0.39737778902053833,7.481354236602783,0.20863904058933258,0.2683221399784088,-13.65849781036377,-0.04108424857258797,-0.00015887142217252403,0.04840730503201485,0.029138460755348206,0.2896158695220947,-1.7403236627578735,-0.1094885841012001,-0.1977708786725998,-0.16573213040828705,0.030849432572722435,-16.03989601135254],[0.17268964648246765,0.19008047878742218,-0.16558228433132172,0.38148054480552673,0.0522846095263958,0.45414721965789795,-0.39900922775268555,0.0030781757086515427,-10.559725761413574,-0.07291089743375778,-9.947007179260254,0.19265693426132202,-0.6021059155464172,-3.8879997730255127,-0.12590579688549042,-0.0015255240723490715,-0.2823193669319153,-0.4015991687774658,0.024213332682847977,0.407490074634552],[3.3425161838531494,-5.9082183837890625,-0.3030358552932739,-13.394242286682129,0.5465002655982971,0.329134464263916,0.016046585515141487,5.419620513916016,-13.296346664428711,0.2167222499847412,-0.07733497023582458,-0.06441093981266022,-0.10065153986215591,-0.2683933675289154,-0.0009537824080325663,0.039363760501146317,-0.059540197253227234,0.15612660348415375,-0.06286376714706421,-0.016527967527508736],[0.473293662071228,0.08722925931215286,-5.738280296325684,0.24373283982276917,0.17191483080387115,0.22298230230808258,0.1258881539106369,0.17274470627307892,-11.933660507202148,11.635847091674805,0.32078054547309875,-0.15651264786720276,-0.04658062011003494,0.02867683209478855,0.11002916097640991,0.04226625710725784,-0.36562132835388184,0.01676671765744686,-0.018856912851333618,-0.10517586022615433],[-14.899477005004883,0.09265903383493423,0.08850909769535065,-0.12273980677127838,6.88280725479126,-0.35686665773391724,-0.07514877617359161,-0.06183406710624695,11.70478343963623,-0.26928794384002686,0.14869903028011322,0.18935708701610565,0.08685597777366638,-0.11044799536466599,0.45928964018821716,0.2741134762763977,0.05184103921055794,-0.32070866227149963,-0.22272489964962006,-0.23583967983722687],[-0.14401337504386902,0.18874023854732513,0.3397911489009857,0.05979505553841591,-0.050462156534194946,-5.121237277984619,-0.05838140845298767,0.034351177513599396,11.005301475524902,0.17627112567424774,0.10480694472789764,-0.14125843346118927,0.019357167184352875,0.0031827210914343596,-11.471244812011719,-6.20695686340332,0.08438759297132492,-0.053285520523786545,0.08757008612155914,-0.13455282151699066],[-0.042724624276161194,0.34317547082901,0.5010374188423157,-0.04193582013249397,-0.11723360419273376,-0.01121477410197258,-17.939693450927734,0.14408563077449799,10.857338905334473,-0.13181939721107483,-0.09178192168474197,-0.14141201972961426,-0.2784283757209778,0.12802346050739288,0.11982065439224243,0.024488316848874092,-5.3246355056762695,-0.4199487268924713,-0.05101665481925011,0.17105354368686676],[0.09825555235147476,0.19490352272987366,-0.44426292181015015,0.052057113498449326,0.04545387998223305,-0.12108097970485687,-0.2919299304485321,0.19502198696136475,10.682829856872559,-0.12872229516506195,0.2118312269449234,-0.42552247643470764,-22.983613967895508,-0.3592681586742401,-0.048893339931964874,-0.03853827714920044,0.1386445015668869,-5.509881496429443,-0.18252108991146088,-0.06966236978769302],[0.19052107632160187,-20.631837844848633,-0.03174004703760147,0.06525969505310059,-0.2670525312423706,-0.16270296275615692,-0.15045027434825897,-6.591336727142334,11.971552848815918,-0.3202933371067047,0.35945865511894226,0.36749348044395447,-0.10765272378921509,-0.176382377743721,0.3098764717578888,0.1686631441116333,0.10270749032497406,-0.36174142360687256,-0.28716012835502625,-0.11978677660226822]],"biases":[5.2909417152404785,1.3849729299545288,4.353123664855957,0.23123398423194885,-5.944839000701904,-11.472441673278809,-5.403685569763184,-5.593986511230469,-5.3492326736450195,-5.218108654022217]}],"inputLookup":null,"inputLookupLength":0,"outputLookup":null,"outputLookupLength":0,"options":{"inputSize":0,"outputSize":0,"binaryThresh":0.5},"trainOpts":{"activation":"sigmoid","iterations":3,"errorThresh":0.005,"log":true,"logPeriod":1,"leakyReluAlpha":0.01,"learningRate":0.3,"momentum":0.1,"callbackPeriod":10,"timeout":"Infinity","beta1":0.9,"beta2":0.999,"epsilon":1e-8}}