{"type":"NeuralNetwork","sizes":[40,20,10],"layers":[{"weights":[],"biases":[]},{"weights":[[4.910281181335449,-1.2157235145568848,10.346735954284668,-6.726631164550781,1.143992304801941,-4.147297382354736,29.973012924194336,-8.128701210021973,6.838930130004883,2.930696964263916,-33.21894073486328,9.599064826965332,-0.7453306317329407,-6.8211164474487305,3.251007556915283,-6.675583362579346,6.706636428833008,-4.384441375732422,-27.985746383666992,-3.6546053886413574,7.6917619705200195,1.826002836227417,-6.701584815979004,-0.9128686785697937,-5.025856971740723,-4.725963115692139,-4.42311429977417,-0.5659379363059998,1.0160020589828491,0.8628326058387756,-8.613089561462402,3.245340347290039,-7.473475456237793,1.1969208717346191,-18.704647064208984,3.9026072025299072,-5.977838516235352,-3.1102054119110107,16.041393280029297,12.68899154663086],[5.993994235992432,-4.15366268157959,-37.12651443481445,7.338259220123291,8.816305160522461,4.545300006866455,-21.821605682373047,-13.152639389038086,8.475876808166504,-4.462032318115234,1.3862224817276,0.012760071083903313,-1.3106119632720947,-0.9973250031471252,9.134413719177246,-0.20844131708145142,1.1542184352874756,6.639862060546875,-21.910659790039062,-0.48286324739456177,-4.514829158782959,6.0258708000183105,4.413294315338135,-5.415874004364014,-4.862689971923828,-1.2710213661193848,-25.37465476989746,-4.018527507781982,-1.6955931186676025,-17.66516876220703,-36.4764289855957,9.258752822875977,-5.89654016494751,3.025430917739868,21.398740768432617,4.085777282714844,19.188074111938477,11.406046867370605,2.000701665878296,-9.223799705505371],[-0.640230655670166,0.6457931995391846,-24.0271053314209,-0.6754111051559448,-0.9472612738609314,6.42215633392334,-8.083569526672363,-9.726158142089844,-1.7349340915679932,5.889948844909668,4.01131534576416,0.30353739857673645,6.907371520996094,-2.959453582763672,-19.572294235229492,9.652153968811035,2.624591588973999,1.3031272888183594,16.014062881469727,-4.226202011108398,-3.1577610969543457,0.1623331755399704,0.5896926522254944,-7.419671058654785,0.025445517152547836,4.064658164978027,-8.586767196655273,13.509727478027344,-4.996479034423828,1.3950896263122559,20.61138916015625,6.299868106842041,4.49334716796875,0.7759692072868347,-1.0114398002624512,6.909986972808838,-5.077033996582031,2.353600025177002,-38.22993087768555,9.776484489440918],[-13.056267738342285,-4.788609981536865,12.579744338989258,29.91151237487793,-7.502517223358154,2.9170117378234863,5.500373840332031,14.08055591583252,-14.460881233215332,-21.561870574951172,-11.138459205627441,1.5444060564041138,0.7845719456672668,-4.919162273406982,6.677700042724609,8.748141288757324,-0.8270832300186157,-4.56146764755249,-2.1653244495391846,2.2945878505706787,-6.981629848480225,-3.9938478469848633,-12.212343215942383,10.810868263244629,-5.5946173667907715,-4.62359619140625,1.9426988363265991,18.823331832885742,-8.865509986877441,0.7072750329971313,-8.314456939697266,-11.50308895111084,6.738192081451416,9.803166389465332,-24.40669059753418,7.2481279373168945,19.775634765625,3.0308711528778076,4.475677967071533,9.48590087890625],[8.252856254577637,-10.358805656433105,-1.3519331216812134,-10.150862693786621,2.454737424850464,5.170927047729492,-13.30069637298584,-2.7315261363983154,-9.756712913513184,10.139944076538086,11.180662155151367,-17.954296112060547,-5.757447242736816,4.398282527923584,15.155253410339355,-5.394650459289551,3.1038758754730225,1.4601452350616455,-14.06015682220459,2.263314723968506,1.8440113067626953,1.300852656364441,-18.194780349731445,7.211391925811768,5.026562213897705,-1.059650182723999,2.342475652694702,-0.6737756133079529,7.211987018585205,-2.178332805633545,-18.915523529052734,-3.6613805294036865,11.999361991882324,-2.5909485816955566,-24.086259841918945,-1.7073556184768677,5.8237528800964355,12.446760177612305,-18.898534774780273,-3.2508959770202637],[1.5961436033248901,3.169726610183716,-20.936214447021484,-6.254020690917969,-3.446819305419922,-6.572577953338623,13.315462112426758,-23.9697322845459,11.164546966552734,3.0616440773010254,-40.411441802978516,-12.960309028625488,8.640021324157715,8.677901268005371,-32.82598114013672,-3.839982748031616,3.1083431243896484,-9.142915725708008,6.0492472648620605,5.31839656829834,9.403570175170898,-1.3271830081939697,-22.629196166992188,22.27355194091797,5.197474002838135,0.4526209533214569,-5.771631717681885,-2.172163963317871,8.979449272155762,-5.92724084854126,-10.288556098937988,14.883008003234863,2.1361114978790283,-4.734681129455566,-14.908638000488281,-12.590136528015137,1.5153650045394897,7.386384963989258,-11.746407508850098,14.945185661315918],[-2.9970030784606934,0.4925156533718109,6.031366348266602,-4.135966777801514,14.193202018737793,13.639113426208496,-9.765559196472168,-2.0599050521850586,0.714783787727356,-7.76618766784668,0.40379250049591064,2.5551342964172363,-5.940304279327393,-3.014164447784424,-27.037731170654297,-2.2505786418914795,-1.905756950378418,-15.504995346069336,18.0822696685791,-13.936677932739258,3.967545747756958,4.491574764251709,-4.529925346374512,15.389866828918457,-0.1309049278497696,-4.33350944519043,13.225785255432129,11.59142780303955,20.524616241455078,-10.369583129882812,-33.71087646484375,0.8520386815071106,-11.488317489624023,-6.727746963500977,10.960918426513672,15.228706359863281,8.132495880126953,-8.988466262817383,10.156805992126465,13.319282531738281],[-0.4933423399925232,-3.87896728515625,19.689565658569336,2.589761972427368,10.21621322631836,16.956838607788086,-27.6461181640625,-5.556891918182373,-4.935006141662598,4.811448574066162,-18.691967010498047,3.2328641414642334,-2.175825357437134,-14.394182205200195,16.021305084228516,-7.259553909301758,0.7925319671630859,-11.442464828491211,5.349216938018799,-14.047150611877441,10.104063034057617,7.106590270996094,-5.479773998260498,14.046710968017578,7.864943027496338,-4.988500118255615,-17.651016235351562,-14.27643871307373,3.1021921634674072,-3.350619316101074,3.4957902431488037,-4.639159679412842,-1.8228785991668701,-3.222102642059326,-11.16250228881836,-2.9675467014312744,6.735567569732666,-5.215451240539551,0.45484253764152527,4.612845420837402],[-2.345156192779541,1.4341425895690918,-17.296567916870117,15.81540298461914,-0.4255255460739136,-4.2041215896606445,-17.931411743164062,-19.740846633911133,-11.883145332336426,0.6291075348854065,-11.975262641906738,18.39288902282715,-3.497235059738159,-12.1119966506958,15.898653984069824,3.9748260974884033,3.506809949874878,6.681212425231934,-17.58197593688965,0.575090229511261,8.535686492919922,0.4490664005279541,-4.019296646118164,-0.6769664883613586,4.595771312713623,-0.779607355594635,-27.693275451660156,-0.33088359236717224,-6.619050979614258,9.579360008239746,-7.477352142333984,-13.433206558227539,-1.556005835533142,12.49033260345459,-10.877484321594238,7.190389633178711,2.420764923095703,-2.9194042682647705,31.180261611938477,1.5259453058242798],[6.1076459884643555,-15.462387084960938,-4.296774864196777,-2.3551025390625,-1.6781511306762695,-16.677715301513672,-19.07866668701172,-5.659703254699707,-9.140482902526855,8.5762357711792,17.238571166992188,7.832806587219238,-7.843094825744629,0.5059921741485596,-16.55534553527832,5.7063446044921875,5.854791641235352,2.180525779724121,26.070280075073242,-14.419475555419922,-3.9299049377441406,1.464642882347107,-2.2547695636749268,1.4673830270767212,-1.492325782775879,15.099188804626465,-9.596238136291504,8.483345031738281,-2.56351375579834,12.288880348205566,-11.733373641967773,-2.690617322921753,-1.594997763633728,6.765400409698486,10.381993293762207,15.455048561096191,-8.250282287597656,-4.441146373748779,-0.3286702036857605,-14.48652458190918],[-4.101809978485107,-1.3048657178878784,7.950843811035156,1.864731788635254,3.7322800159454346,-0.33637872338294983,25.689374923706055,-7.794506072998047,-13.836665153503418,-8.434006690979004,30.712724685668945,-3.029585123062134,1.2255675792694092,-2.817196846008301,-0.5682773590087891,6.08394718170166,-0.037228185683488846,0.5184341669082642,-5.488932132720947,20.624927520751953,-6.799238204956055,3.2165589332580566,1.402927041053772,-9.366541862487793,-2.354722023010254,1.4183518886566162,-7.977652549743652,12.801706314086914,0.9319479465484619,-0.6032629609107971,-2.6813805103302,17.29152488708496,0.6434205770492554,-1.2273770570755005,-34.935630798339844,-4.825136184692383,-1.0943750143051147,-8.48148250579834,15.330994606018066,-5.82051420211792],[-3.4883220195770264,3.846076726913452,-22.63829231262207,7.233987808227539,-7.109814643859863,-1.4119653701782227,2.5390186309814453,15.46417236328125,-6.1869916915893555,-11.41583251953125,20.439241409301758,1.2716137170791626,11.25798511505127,-4.082846164703369,-9.690539360046387,0.9710308313369751,-11.700160026550293,-11.377488136291504,34.6180534362793,1.9941197633743286,-1.9922535419464111,3.778580665588379,-2.483612537384033,-6.5482988357543945,0.19936752319335938,-2.058558464050293,-3.5723938941955566,9.953177452087402,-19.048229217529297,5.119373321533203,-19.13924217224121,-11.700647354125977,3.3193979263305664,6.544791221618652,0.28463393449783325,11.412456512451172,7.903110504150391,10.936056137084961,15.167065620422363,-3.807436943054199],[-5.594614505767822,-3.446173667907715,33.69948959350586,-2.3286352157592773,1.1788897514343262,-1.8161964416503906,-2.108889102935791,-18.777843475341797,-5.1063947677612305,0.5176962018013,-5.8063530921936035,0.45920276641845703,1.2176538705825806,-9.465049743652344,-11.405753135681152,1.729633092880249,-2.027552843093872,-5.571378231048584,-3.0569989681243896,16.26166343688965,6.803163051605225,1.1597018241882324,23.823152542114258,-0.36392882466316223,0.5761659741401672,2.1316936016082764,-4.5309295654296875,-2.4525225162506104,1.4905930757522583,9.5971040725708,-19.853899002075195,-13.538840293884277,3.5374348163604736,-1.9809777736663818,-6.180484294891357,-0.8503226637840271,-1.4801510572433472,3.100209951400757,-3.4631240367889404,-2.9863100051879883],[5.068073272705078,-2.0587470531463623,-5.626800537109375,-13.060647010803223,-3.879169464111328,-2.6414856910705566,-46.51146697998047,-9.182188034057617,3.601391077041626,5.3087029457092285,4.460764408111572,-15.623185157775879,-4.194075107574463,5.940943717956543,-5.852978229522705,3.4628889560699463,12.495796203613281,-10.678993225097656,-0.497001051902771,-1.7008733749389648,1.818861961364746,-6.977065086364746,6.6996684074401855,16.770692825317383,3.4779868125915527,-2.456512451171875,2.351468801498413,-27.154254913330078,5.329084873199463,-1.4639923572540283,-10.024206161499023,15.608159065246582,0.9909109473228455,7.691109657287598,-27.9518985748291,12.3287935256958,-6.280790328979492,3.375312089920044,12.892244338989258,20.168834686279297],[5.237546443939209,4.901905536651611,-28.674962997436523,2.0648977756500244,1.3006871938705444,-0.2907395362854004,-1.130126953125,-17.4235782623291,-3.7900102138519287,-6.442892074584961,-9.83895492553711,3.8681063652038574,0.588643491268158,-12.664908409118652,11.462508201599121,-6.6447062492370605,-5.125258922576904,-4.50865364074707,16.56950569152832,-4.03950834274292,1.3138096332550049,4.710077285766602,17.380277633666992,6.634944915771484,6.389526844024658,-3.623961925506592,2.7624034881591797,17.13219451904297,5.444466590881348,18.552772521972656,-25.06900978088379,-5.232180118560791,9.438790321350098,-0.2434452474117279,-12.165771484375,2.8758556842803955,-0.5518798828125,-3.8948678970336914,-10.420938491821289,-7.701018810272217],[-10.685091972351074,5.227904796600342,-14.985288619995117,8.06779956817627,-2.8194503784179688,-4.537117004394531,-32.29733657836914,-2.7023842334747314,-13.16075611114502,3.8761231899261475,9.45492172241211,-11.692502975463867,-6.0342116355896,-1.5024971961975098,49.51663589477539,-13.35640811920166,-6.394321918487549,1.9097843170166016,-21.875856399536133,13.046300888061523,4.652320861816406,-2.332063913345337,-8.096877098083496,-8.27673625946045,4.502033233642578,18.07175636291504,13.600462913513184,26.722126007080078,-6.290042400360107,-2.3816351890563965,-4.107548236846924,10.658077239990234,4.152640342712402,-2.463378667831421,-7.774608612060547,-11.868014335632324,-6.701937198638916,-4.184138774871826,-12.829224586486816,12.820383071899414],[-0.4871671497821808,8.075307846069336,16.25267219543457,-8.695151329040527,-7.982985496520996,-10.4637451171875,0.11124754697084427,-8.637951850891113,-5.140298843383789,11.250503540039062,-5.411191463470459,-20.672611236572266,12.861021041870117,-3.7595181465148926,-24.432735443115234,6.760324001312256,0.6045109033584595,-0.5614749193191528,-10.297621726989746,0.20321188867092133,16.165239334106445,11.745979309082031,3.6521425247192383,2.2081167697906494,5.904494762420654,-0.382215291261673,-18.085102081298828,16.893999099731445,-17.60367202758789,-2.964848279953003,9.03032398223877,6.575223922729492,5.0661396980285645,-14.009390830993652,-7.739847660064697,-11.414502143859863,-6.987192630767822,7.408447265625,0.8446056842803955,1.154025673866272],[-9.129762649536133,-5.386613845825195,-2.4087681770324707,-5.115051746368408,-5.876554489135742,-6.395544528961182,-25.630170822143555,-0.6871429681777954,11.126601219177246,14.576071739196777,-17.92868995666504,-3.65842604637146,14.19990348815918,12.728057861328125,7.723982810974121,-8.791340827941895,-0.06831135600805283,-6.88508939743042,1.3202457427978516,-6.20058536529541,-4.508068084716797,2.5678019523620605,-4.124040126800537,-0.6354596018791199,7.87404727935791,7.039942264556885,8.451050758361816,7.024643898010254,-11.335509300231934,-1.8377822637557983,7.490103721618652,5.6597723960876465,7.21835994720459,-9.570306777954102,11.260673522949219,-21.166629791259766,-28.818939208984375,-8.811857223510742,-1.047806978225708,0.3885246217250824],[-2.7161800861358643,0.21217477321624756,2.4244632720947266,6.429948806762695,-17.307228088378906,1.0774543285369873,-52.97362518310547,14.189021110534668,7.4392852783203125,4.164764404296875,-20.472579956054688,14.007294654846191,2.5438849925994873,-4.568147659301758,-5.541619777679443,16.474246978759766,-1.6653751134872437,4.9401092529296875,6.984477519989014,-21.84995460510254,-5.837660789489746,-0.7488876581192017,0.850490152835846,10.456875801086426,-3.1874756813049316,-6.060425758361816,4.571578502655029,-4.305818557739258,-6.476015567779541,3.2901477813720703,-14.396886825561523,2.319896936416626,5.123963832855225,5.7910990715026855,-6.321604251861572,13.482645034790039,3.4679322242736816,-1.2017942667007446,-8.001334190368652,10.786111831665039],[6.811208248138428,8.238765716552734,3.5402376651763916,-3.807631254196167,-7.562442779541016,0.018893063068389893,-8.938216209411621,-3.562958002090454,-3.4383366107940674,-7.105871200561523,20.081079483032227,6.774857521057129,7.5825347900390625,-6.317885875701904,-11.882805824279785,2.4279003143310547,12.219067573547363,3.3147120475769043,-38.34438705444336,-0.11152458935976028,8.786870002746582,-3.9175119400024414,-20.145263671875,14.347908020019531,7.445938587188721,2.930651903152466,0.09693505614995956,0.45649850368499756,1.9128023386001587,3.0016427040100098,-8.124223709106445,-1.8534218072891235,4.514208793640137,-2.751511573791504,2.1334283351898193,4.754611968994141,-5.315179347991943,-5.198026180267334,-5.265473365783691,9.299184799194336]],"biases":[9.720168113708496,-4.0816216468811035,-3.769768714904785,13.065237998962402,-19.30459976196289,1.5492404699325562,-10.961560249328613,9.501957893371582,1.0192508697509766,-6.640689849853516,2.2003073692321777,-8.369504928588867,1.1789171695709229,4.131340980529785,-0.3425676226615906,-3.9450674057006836,9.952320098876953,10.291665077209473,15.559803009033203,-8.365108489990234]},{"weights":[[8.455341339111328,-25.85995864868164,-18.889366149902344,-0.13158194720745087,9.550861358642578,3.889395236968994,-12.941295623779297,20.381141662597656,-26.945322036743164,15.296910285949707,12.61419677734375,1.226556658744812,24.427499771118164,-20.787580490112305,-30.336708068847656,4.4278645515441895,-7.19649076461792,-8.911797523498535,18.477807998657227,4.602227687835693],[22.76566505432129,-20.24690818786621,-7.75150203704834,-7.118870735168457,-2.813716173171997,22.818838119506836,-31.345914840698242,0.3590855598449707,-25.807241439819336,10.771408081054688,9.723796844482422,20.561491012573242,1.6653751134872437,-25.33953285217285,-6.270233631134033,11.292439460754395,-12.826898574829102,-20.818153381347656,-15.233810424804688,0.49088215827941895],[-15.072999000549316,-7.782569885253906,4.838723659515381,-20.87037467956543,5.60280179977417,-11.634730339050293,-14.953845977783203,-4.94294548034668,-16.82016944885254,9.57986831665039,25.26242446899414,27.634336471557617,5.417043685913086,-0.9164199233055115,-11.150043487548828,16.117921829223633,-14.539237976074219,-27.226606369018555,-1.8204677104949951,20.70872688293457],[10.429910659790039,-7.34413480758667,-21.090131759643555,-15.347460746765137,12.176189422607422,-8.06794261932373,-28.200550079345703,17.18584632873535,-9.737691879272461,4.705152988433838,-4.104346752166748,8.993064880371094,-8.756108283996582,-16.57492446899414,5.690609931945801,33.64237976074219,-19.238693237304688,-19.798709869384766,6.034371376037598,-4.5466227531433105],[-14.508541107177734,-22.71449089050293,-1.289320945739746,-26.758554458618164,-3.3559775352478027,27.447063446044922,-3.9260964393615723,21.898372650146484,-15.58806037902832,19.526203155517578,4.4858503341674805,22.800933837890625,-4.558938026428223,-12.513884544372559,-4.9408955574035645,13.263726234436035,-7.531632900238037,-26.786346435546875,14.96054744720459,-24.767078399658203],[-6.045246601104736,14.683221817016602,1.5803555250167847,13.193573951721191,-15.27943229675293,-25.737829208374023,1.409139633178711,-20.647436141967773,-6.517475128173828,-14.49223804473877,-11.897072792053223,-17.302942276000977,13.574912071228027,19.462533950805664,14.880455017089844,-17.345367431640625,20.71377944946289,6.559281349182129,-13.829188346862793,-17.795434951782227],[3.8382515907287598,-3.507097005844116,-8.091694831848145,14.584155082702637,-11.038667678833008,-19.22103500366211,12.930514335632324,-15.066522598266602,-19.29623031616211,-10.278460502624512,-20.220014572143555,-6.014533042907715,-2.9374043941497803,21.890483856201172,15.233402252197266,-22.09025764465332,-8.560710906982422,17.80180549621582,-15.213446617126465,12.112836837768555],[-11.758346557617188,-17.256858825683594,5.357161998748779,23.756105422973633,-13.844120025634766,-14.170592308044434,-16.02518653869629,5.714189529418945,-5.561697483062744,-22.363069534301758,-25.919687271118164,-17.703662872314453,-20.766950607299805,15.14023208618164,0.6226528882980347,-15.71776294708252,16.041645050048828,8.615326881408691,-23.39020347595215,-8.065564155578613],[-23.588748931884766,18.819610595703125,-3.305410861968994,13.393131256103516,-26.414304733276367,-9.173473358154297,18.090208053588867,-5.049850940704346,-4.509904861450195,-7.682342052459717,-24.329959869384766,-18.805383682250977,2.8126449584960938,-8.252250671386719,2.9325344562530518,-17.47081184387207,10.632205963134766,11.977763175964355,-27.620817184448242,4.252248764038086],[-7.919194221496582,5.701908588409424,-29.783388137817383,7.692133903503418,-11.284563064575195,-11.02013874053955,8.370887756347656,-5.114898681640625,11.511791229248047,-8.046611785888672,4.58051872253418,-8.917261123657227,-11.412335395812988,15.721614837646484,11.87726879119873,-27.041183471679688,16.946142196655273,19.437387466430664,-14.90711498260498,-6.256195068359375]],"biases":[-15.89195728302002,3.025212287902832,-18.43213653564453,-1.3800983428955078,-13.945256233215332,-10.469335556030273,-12.287460327148438,5.4352312088012695,-1.0827734470367432,-14.536205291748047]}],"inputLookup":null,"inputLookupLength":0,"outputLookup":null,"outputLookupLength":0,"options":{"inputSize":0,"outputSize":0,"binaryThresh":0.5},"trainOpts":{"activation":"sigmoid","iterations":20000,"errorThresh":0.005,"log":true,"logPeriod":1,"leakyReluAlpha":0.01,"learningRate":0.3,"momentum":0.1,"callbackPeriod":10,"timeout":"Infinity","beta1":0.9,"beta2":0.999,"epsilon":1e-8}}